svm_type c_svc
kernel_type gkm_esttrunc
L 10
k 6
d 3
norc 0
nr_class 2
total_sv 354
rho 0.273656
label 1 -1
nr_sv 147 207
SV
0.6292781725413596 TAAGGGAGGGAGAGGAGAAAGGAGGAAGGGAGAGACTGGGCACTTCAAGGGTCAGAGGAGGACCACCTGTGGTCACAGCCATCGTCACGACCCCCTGCCGCGCCCACGCACGCGTGGATGGGGCCAGGCTCTGGGTGCCACCTGGGAGGAGCATCCATTCATAATCCGGATCTGCCCCCGCCTGTGCCTTTTCTCCTCGT
1 GGGCCCCTGACCCTAGGGCAGCGCCAGATCCCTAAAGCCCCCAGGTCCCATCCAGTCTTCTAGTCCCAGAACCCCTCCCCACATCAAGTTCCATTCTGGCCCAGAGCATGGAGGTTAAGCTGTGAAATACTGGAGATGAAATCCGGGCTTCCGCTTTGGAGCACCCGGGCAGAGCAGAACATCTCAGTAGTTTCTGGAGA
1 CCCCCGAGAAACACAGGCGCACAAAAAAAGACAGAAGGAAAAACGGAACTGAGAGCCAGCCAGCATGGACTGCGACAGCGTGAGAGTGCATCAAAGAGGTGGCGAAGAAAGCACTAGAAGGCAAAGGAGAAGTGGAGAGAAGAAGAAACAAATGGAGGAAGAAGGAGAAAGGGAAAAAGCAGACGGAAAAAGTGAAGTAG
0.2249095236550085 AGCGGCGCGGCTCCGCGGGTGCCCAGGTGACCGGCTCGGCAGCGGCAGAGCAGTGGCAGCAGCCGCCACTGCCGCTGTTACTGCGGTCGCCGCCGCTGGAGAGAGGAGGACGAGGAGGGCAAGGGGCAGAAGCAGGTCCTGCTCTGTCTGCCCCAGAGGCCACCTCGGGTTTCTTCTCACTAACCAAGCGACTTCGTGTT
0.2969000160183471 CGCTCCCTAAGTCCGAGGGACCGAGGCGAGGACCTGTCCCGCTGAGCTGGCACGACCCACGCAGGGCAGGCGGCACTTACGCGGCGCAGTCGGTGCTCCTCCCTGAGCCGCGGCGCGCAAGGACCCCAGCCGGTTGTCCTTGCAGCGCTTCCCAAATCAGGCAGAAGTGAGGCAGCCCCACCCAGTCACGAGGACCCTGC
0.3987461724024802 GGGTAGGGGTAGGTGCCCGCGCCTGGGCCCGCGGGGCTTTGGTCATGGCTGTTCCCCGGGAGGCTCAGTTAGGCAGCAGCCTTGCTGGGCAACAGGCCCCGCCCTTGGTTAATCCGGGAAGGTCGCGGGCTGCAATCTGGCCTGACGAGGCAGGCCCTGAAGTCTCCCCGCTGGGCGATCAGAAGAGCGTTCGAGAAGCC
0.02031945185247093 AGAAGTAGGGCGCGCTTCGTGGATGCAACCAGGGCCGTCTCGCGCACTTTCTTCCTACCCTGGGACAGCGCCTGAACTGGAGCTGGGCGCACACACTTTACGGAGCCAGCTCGGGTTCTTACGCCCTGGCTCACCCCCGCCCGCCGCCCCAGGATGCAGGTGCTGCGGCGCTCCCTGGTAGCCTCCCGCGCTCCCTGGGG
0.6604789417497144 GGGGACCCCTGAACAACCCAACCAAGAAGGGAAAACTAGGGCGCACTCTCGGTCGGGGTGGGAGAGGAAAGGGGCTGGGGCTTCACGGAGTTTGGAGTTTGAACCCACCCGCACCCCTTTGAGCTAGGAAGTTTGACCCTTCGACGAGCAGGTCGCCTGGGGTATGCCCCTGTCTCCGTGCCTCTGTCTCAGCACCGAGC
1 GGCTGCGCTCCAGGGATAAATTCTTTTTATTTCCCTTTTTTGTTTTTTTTTTTTTTTTAACAGAAAGGGGAGCTTCAGATGCTCCGAGATTCTTCCCCCCGGCTCAGATCCGTGAAGCGCGCATCCTGGTCATTTTTGCCGGCCGCCTAGTACTCTCTGACTCGGCGGTGGTTTCAGGTTTTCCTGAACCACTTCCCCGC
0.05894333409035995 GGCACCCACCGGCACTGCCCAGCCCTGTCTGGAGGGTCTAGGACTGAACGTCTGTCCCCGGCCTTCATCCTGGCTGCAGAGGACTGGCCGGGTGATGCCGCGCTGTCCTGGCCCTGGGCCCGCCTGGAAGACCCGCCTGTGTCGCGGGCCCCCTCCCTGGCTCTGGCCTCTAAAGCGCCCCCGGCACAGCTTCCCGGCCC
1 GTCTTTGAAAGGAGGCAGCCCCAAAGCCCTCAGGCCGACACCTGAGGGCAGGGTCTCAAACAGCTGTGCTTGAAGAACCGGCAATCTTGCTTTTCCCACACGCAGCTGCACCTCTCCTGAGCGCTGCAGCTGATGGCTGTATAGTGACCACGGACTGCGTCCTCCTCACGAAGCTGCGCAACTTCTGCTAATGCTGCAAC
0.1489803049782658 AGCCGCCCACAATGGACCGATATACTGAGGGCCTCTCTATTAACGCCCATGAATATTAAAGAGATCGCCAAGTGGCGGCCAGCGGGCGAGGGGGGCGACGGAGCCTGAGAGCTCCGGCCCGGCCGAGGGGAGGGGGCTTTTGCGCGAGCACATTCCGCGCCTGGGCCCCGCGGAAAATGACAAAATAACACGGGTCATCC
1 AGGGCTCCGGGTCCGGTGCTTGTGGCCCAAGTCTGCGCGCCGAGTCACTTCTCTTGATTCTTTCCTTCTCTTTCCTATACACGTCCTCTTTCTTCTCGTTTTTATTTCTTCTTCCATTTTCTCTTTCTCTTCCGCTCTTCCCCTACTTTCCCTTCTCCCTTTTCTTTTTCTTTCTTACTCTCTCCTTGTCCCTGAGCTTT
0.4768954090876437 TTCAGGATCTTCGCTCCCGCCCTCCGAGGTGAGGCTAGAGGGGAGGGTTCGACTCCAAGGGAATCCCAGGGATCTCTAGCCCCGCTCTTCTAGCAGAGAATTAAGGAATTCTCTCCGCTTTGGGGTCCCAAAAATCTCCGACCGCGCCTTGGGAGCAGAGGGTTTCGGGGTTCGATTTCCTCGAGCGTCCCCAGAATCTC
0.07384357266216905 CTTGGCAGCGGGGCCATGTTCTTGCTCACGTCCCCCAGCGAGCCCAGGCCGCCCATGCCGCTCATGTTCATGCCGCTCGCCGGGCCCATGAAGCGGGAGACTGTAAGCGACAAACGCACAGCGTCGGCCGGGGCCAGGCCGAGCCAGGCCACCCCTGTTTTCCGCGCCATTGGCCCGCCCGGCCCGCCCCAACCGACGGC
0.6777278334841552 CAGCCAGAGGAGCCAGCAGGTCGGGACTCGCTGAGGGGGCTCCACGCGGGGCCTCCCACGCACAGGTACGCGCTGGTCCTCGGGGTGTCCCCAGTTTGGGAGGGAGACACGCACAGTCGCTCCCGTCCACACTCCTCTCGTGTCCTGGCTCCATGACTGGGAGTCTGGGGAAAGAAGAATGGGTGTCTGAGACCTACCCC
0.3638230202095337 GTGTGCGAGCGCATGTGGCCCTGCAGCAGCCAGGGCCGCGAGAAGGCTTTGCCGCACACGCCGCACTTGTGGCGCAGGTCGTGCGTGAGCAGGTGCATGGCCATGGCCGGCATGGACACGTACACCTTGCCGCACGTCGGGCAGCGCCGCGCCAGCTGGCTGTCCAGGCTGCGGTGCGTCTGCTTGTGGCGGCTCAGGTT
0.05358663124982054 CGGTAGCGCTCATTCGGCCGGATGGCCACGCGGCGCCCGTCCTTGCCGGTGTACTCGAAGGGGTGCTCCACCAGCACGTACACGTCCCCCACCACGTCCGCCGCCATCGCAGCCGCGGCGTTTTCCTGCGGGCAACAAGAAGGAGGGCCGCGGAGGTCAAGACCACCGAGCCTGGAATAGCCCCGCACTCGGGGACAGAC
1 CGCCCGCCCCATCTCCTCGCCTCGCGCCTCGGGACAGCTCCCGTTTCCTCCGAGCGGCCTCAGCTTCGCTGCCAGCGCCCCCTTTGCCCGTCCAGCCGCGGCATGGGCTGCTACTCCACTAACACACGCGCGCGCGCATACACACACACACACACACACACACACACACACACCCTTTGCCTCGCCAAGCGCCCACACTC
0.1744054456717513 CCTCAGGAACAGAGCACTGCCCTGCAGTTTAGCACGAAGGGCCGGCTGGAGCGGGAGCGCGAGGCCCACTGCAAGAGGATCAGGAGCCAGTAAGTCCGGCTTTTCTTCGTCTCCACCTTTCGTGCGCCCGGGGCCAGGACCGCCTGTCCGGAATCTGACCAGTGCCCGTCCTCGCCGTGGCCCTGGGACCCCGCGGTGGT
0.09190484471085925 AAGGAGGACCCTGCGAAAGCTGCGACGACTATCTTCCCCTGGGGCCATGGACTCGGACGCCAGCCTGGTGTCCAGCCGCCCGTCGTCGCCAGAGCCCGATGACCTTTTTCTGCCGGCCCGGAGTAAGGGCAGCAGCGGCAGCGCCTTCACTGGGGGCACCGTGTCCTCGTCCACCCCGAGTGACTGCCCGCCGGAGCTGA
1 GGGAAGGCGGGGAGCGCTGGGCGGATGCCTGGCCCTAGTGCGGCGCCAACACATACAAGTTCCGCTGTGAATGTTTGAAAGTGTAAGTTTCTCTCGGATTGATTTTTTTTTCCTTTAAATGTATCCCCTTCAAAAAAAAAAAAAAACAAACAAACAAAAAAAAAAAAAACAAAGACGTGGACAGGCAGGCGCCACCCGGT
0.4913756292861087 AGGGCCTGGGCTGCCTCCCCGCCCTTCCCCGCCCCTCCCCTCGGCCCTGGAATCAATAGTGGCCGCTGACTTTTCACGACAATTGCAGCTGTCTAATTCATCAGCGAATAATTAAATCAGAGGCCGCCGGGCCTGCCTGGAGTCGGAGACGAGGGGTCGCTCCTCTCAAATCCTGTCAAATTGGGGAGCCAGTGGGCAGC
0.4244436096636319 TCTTGGGGAAAGGGGCAGCCTCCTGCCCTCGGTTCTGGGATTTGGGTTTGGGAAGAGACGGTTTACCTTTGAAAAGCGTCTGCTCACTCGGAGGTGGGATCCCAGGCCTTGCCTGGACCCATGGGCTAGGAGAGGGTCGCGGCAGGCTGGGAGGAGAGTGAGGCCTTGGGGGAGTGGATGGGGTGCCCCACGAAGAGTCT
0.8344391940648351 CGCGGATGCGGTAGAGACCCATCTTGCTCAAAGATGTTTCGCTCCTTCTGGTGGAGAAGGGTGGACGAGCTAAATAACCCAGCCTGAGACCCCGCCCTCTCGGAGGTCGCTTGGGGTCGGAATGTGGGTGGCAGGTCTCCAATCAACTCCGCCTACCGCTGGGGCCCCCAGCTCCAAGGAGCAGAGCTTCAAGGGGCAGA
0.03946390123153186 GGGTACGCAGTGGGGCTGGGCAATGTCTGGAGGTTTCCCTACCTGGCCTTCCAGAACGGGGGAGGTATGGCTTTTCCGCTCTTTCCGCCTGCGGCGGGGCGGGGCGGGCACCTGAGGGTTGGGTGGGACAGGAGCCCTCAGGCAGGGCCGCCGGGCGGGGAGGCTCAGGACAGCCTCCTTAGGCTCCAGCCCTACACCTC
0.1356140954486668 GGGCTCTGAGACCGGAGCTTCTCCGAGGCCTTGGTGGCGGGGGCGGAGGGGAGGGTGCTGGGGACCCTGGGCGCCTCTGGAACAACACCAGATGTCACTTTTCCACCCACCTGCCTCTGGGAGGGAGGAGCCGAGAAGCAGAGGACAGAAGCTCCCGGGCGGGGGTTAGGAGGAACCGAGAGGTGGGTATCCATCCTCGT
0.409318092655494 GGAGCCTTGGGTGCAGGTGCCGCGGATGCAGGAGCCCCAGGTGCAAAAGCCTTGGGTTCAGGGGCCCCAGGTGCAGGAGTTGCGGATGCGGGAGTCTGGGGTGCAGGGGCCACGGGTGCAGGCGCCCTGGGTGCAGGAACCTTGGGTGCAGGGGCCTCAGGTGCAGGAGCTGCGGGTGCTGGAGTCTCGAGTGCAGGGAC
0.5204203705725341 TCTTCCTCTCCAGACCCATTTCGTTCCAAGCATTTGGAATGACAAAATTAAACCCCAACCCTGGCGGCTCGAGTCTAATGTGACTGTTTAACCCTGGGAAAGCGATGCTCCCATTTTCGAAGGGGCTCCTCCTCTTCGGAGCGGGGAGGCCGCCGGCGGGTGTGCCCGGCCCGCGCGTTCTGCGGGTGTTCGAGCCTCGG
0.7255245143023973 CGCTGGTGCAGGGAGGTCAGGGCGGTCTCGATCTTGACCCTCTCCTCGGTGTCGTTCCTGGGGCCCCCCTTGCCCTCCTCCAGGGTGTTCACCCGGGACAGCACCTGCCTCTCCAGCTCATCGATCTTGCTCTGCAGCAGATCCTTGAGGCTGTTGGTCTGGCTGGAGGAATTGAGGCGGCTGTACTGCTGCGGGGTGCA
0.02136779442441307 CCCGACGGCAGGCCCTGCCCCACGCCCCCCATCCCAAGCCAAAAGCAAGGGTAGGAGAGGCGGGGGCTCCAAATCCACGCCCCGGAGCACAGAGAGTTGGCTAACTCCTAGCGGGGCCTGGGGCGCCCACATCCACGGCAGAGCCACCTGTGAGCCTGCAGAGCAGCAACGGGATGCGCGCAACCGGGATGCGGGGACGA
0.4710223663996667 ATTGCGAGGGGGCTGGAGAGGGAGAGAGGAGCGGAAGCTGAGGGTGTGAAACGGCTGGCCCCGAACACACCTCGCGGCGCTCCAGTGATTCCTGGTGTCCGACCTCAGCCCCAGTCAGTGCGGGTCCAGTTTCCAGGCTCTCGCGGAAGGCCTGGCTGAGCACATGCGGCAGCCACGGTCACCCTCCCTATTCCTCTTAG
0.1529456527209439 ACTCAAGCACCGGCAGCCCCACAAGCATCGACAAGATCGCGGCGCAGGGCCGCAAGCGCAAGAAGCGGACCTCTATCGAGGTGAGCGTCAAGGGCGCGCTGGAGAGCCACTTCCTCAAGTGCCCCAAGCCCTCCGCGCAGGAGATCACCAACCTGGCCGACAGCCTGCAGCTCGAGAAGGAGGTGGTGCGGGTCTGGTTC
0.7424115353931129 CCTCCTCTTTCTCCAGACCCTCAGTCGGGCTCCACCCCGACTCCTAGAGCCTCAGCGCTGCACCCGGGAGCACAGACGGAGGAGGGGCTCACGTGCCAGCCAAGGGAATAAGGCAGGCATGCAGGACACAGGAAGGGCAAGCTCAGAACCCGAGAGCCCCTGAGGACACGAAAGGAGTCTGGGCCTCAGGAGTGGGGACT
1 GGGTGCAGACGCGTAGGGAGGATGCTTGGAGAAGAAAGAGAGGGAGGTGAGAGGCAGAAGCCGAGGAAGAAGGTGAGATGGGGACAAGGAAGAGGGAGAGAGACTGGTGGTCAGTGGGTGAGAGAGTGACCCACTGCTTTCTCTGACACCTCCCCTTTCCCCCACCAACTCCCCCAAAGTTTCTCCCAACACATCCTCCG
0.4793025682993975 TTGGAGCACCGAGGCCAGCGAAGCCATCGCGCTCCTTGCGGAGGTGAAGAGGACCCTGAGTCCCCACCTGCGGCTCCCCTGTGTAGAGCCTGCATCTGTCTGTCCTTCCTTCCATTGCTCCCAGTGCCAAACTTGGGCCGCTGCACCGCGGCGCCTCCGCCCAAATCAATAAACTGTGTCTGTCCCAGGAGGCCGAGTCT
0.8177317361888381 TAGATATAAGGACATTTCTCTTCATGGCGTCACGTGACATAATTACCACCAGAATCAATCAAGATGAATTGCACGTCAGCGCCCGGTGGGGATTTTTGCTTAGTTGATCCTGGCCCAAGCCTCTTGTGCAATCGATGGCTCAGGTTGGCTGCGCGGGGAGCGGCCAGAGGCTCGCTGGCGCGCACGCCGCGGAGTCATGA
0.3203716816009076 AACTCCTACACTGGGGTCGACTCTTGGGCCCACCTTCTGTCCCTGTTCCACACCCAGCTGTCCCTGACCAGTAGACAAGTTTCCGGCGCTGACACCCGTCCCCACCCCCCACCAGGGCACAGCTGCGGAAAACGGCCCCAGGCGGGACTCTGGGGACCCAGGAGGCTGCAGTGCGCGCCGGGGTGGAGTGGCGGCGTTAT
0.5831635263475653 AAGCTGTCCAACGTGGCCACGTCCGTGTCCAACAAGTCCCAGGCCAAGATGAGCGGCATGTTCGCCAGGATGGGTTTTCAGGCGGCCACGGATGAGGAGGCGGTGGGCTTCGCGCATTGCGACGACCTCGACTTTGAGCACCGCCAGGGCCTGCAGATGGACATCCTGAAAGCCGAGGGAGAGCCCTGCGGGGACGAGGG
0.3036442145587007 CGGACCGGCTCATGAGCGGGGACAACACCCGCTGGGTGGCGGGGGCAGCCGGTGGATCTTCGGGAAGTTCGGGGCCAAACAGGCACCAAGAGCTGGTGACCTCGCAGGCGGGAGGGCTGGGTTGGCTCTGCCCGGGACCTGAGGGCGCCAACAGAGTGTCCAAGACACTGTCCAGCAGTCCGCTGTCCTTTTCTGGGGGA
0.4471696608651629 AGACCAGTCCCGCTCCGGTCGAGGCAAGTCAGGATCTATTCCAGTGAAGCGGCCCTTCCTGGGCTCAGTCGCTCCAGAGCAGAGTCTGCTCTGCCTCGGGGAAAGAATCACAGGAAACTTCCGCTCGTTTCAGAGCGGAGAGAGCTCGGGGCGCCATTTCCGCCAGGGCCACCGACTCCGAGAGTCCAGGCAGCCGGCCC
0.4260061535005434 GCTGAACTGAGAGGTGGCGCAGAGTGTCTCACCAGGTGCGGGGATTTCTCTCCGCCTCAGGCCGTACGAGCTTCCCTCGCTGTCCCTGAGCGCAAATGAGCCTCTTCAGTCGCCGAGGCCCGGCCGCTTAGCTCTCGGAGCCTTCCACAGCCCAACACCCTGAGCCCTGGAGTAGGCAATTTGCTCCCACAGCCCTGTGC
0.07771298977409266 GAACGCCGTACGGTAGCGCCGCACTTGATCCGCGCCAGAGCCGGAGCCACCCAGCGCCGCGCTCCCGCCGCTGCCTCCGCTGCCTCCATGCAGGCTTCCGAGGCCTGAGCCCGACGCCGACGTCGTGGTGCCGGCAGCCGAGCCGCTCTCTGCGTACCCTGGCAAACAAACGACCAACAGCGCATGAGTGGCTGTAGGAC
0.6375130513976658 CAGGGAACAAGCTGCCAGCGGGCCTGGGGAGAACCGCCCGTCCGATGAGCTCGGCTGAGCGTGCACGCAGTGCCGAAATCAAGGACGCCTGGATGCTTTTCGTTGCAGAGTGACAAAGGTTCAACAACAGGAAGAGGATCAGGGGCCAAGACAAGAAGCTGAAGTTCGGCCTGCCAGGAACCCCGGGCCCCAGCATCCCA
0.3342744655019614 GGGAGCGAAGCGCGGAGCAGCCCACCTCCACGTCGCTGCTCATGTCGGCCTCAGCGGCCGCCTCTGAATAATGGCCCGGCTTCTTGCGGCTCTCGGCGGCGGAGGAGATTTCGGAGGAGACGGTGCTTTCGCTGCCCGTGTGCTGCAGGTTGAACAAAGTGTCTATTTCGAATTTGCCCTTGGCGGGGAGTTCTCCCAGA
0.1782330901816818 CTGGACGCACGGGTAGCCTCGGAGCGTCCATCCAAGCCGGTGGCCTGAGGCTTGGAGCGAAGGGAGAGCCCGGAACCGGAGGGAATGGGGAGGATGGAGGGCGATCAGATGGAGAGAGCAGCGCTCCTGAGAGCCGGGTGGAGCAGAGACCCGGCCATTGCCTAGGGAGCCTTCCAAGGGAGCCCGGGCCGGGCGCGTCC
0.8970942539516118 GAGCGAGAAGGGACTCCCCAAATGCAGGCAGGATAACGGACACTCCAAATCCGAGGGGAGGCAAGCAGAGGAAAGCCCCCCAAAAATGCCTCCTCAGCTCCCCATTCTGTCCCGCCCGACACCTCCCAGCCCCCTCAGTAAGTGGCAGAGAATTTCATCCGCTTCTGCTTCTGTCTCTGGTTGCAAAACCACACCCGCAC
1 CCTGCCCGGAGAAGTGCGCCCTGTTTAACAGCGTCTCCTCCAGCCTCTGCAAACAGTGCACGGAGAAGCCTTAAACACACCCCCGAAAAACACAAGACCGACCCAAAATCTAGAGGAAAGCGAAAAGCTGCTCCCCACCCCCTTTATTTTGGTCCTCTCGTAGTTGTGAAACACTTGCAGAGCAAACAAAGCAGAGGCAA
0.2655594022359888 TGTGGTGGGGGTCTGGGTATGGGGATATGGGGGAACAGTGAAGAAAAGGAGGGTGAGAGGGCGGCGAGGCGAGGGCCACCAGCGCGTCCTGACCGGGGTGGGGGCAGAGCTGGCACCGGATGGGAACGATGGAGGACTGGAGCATGTGGAGAAGCCGTCAGGTGCTCCAGTGCCGGCAGGTGGGAGGGCTGAGGTGGCAC
0.05438407800125006 CCCCCAAGCAGGCTCAAACGCGCCCTTTCCCGGGTCAGGCCGGGCGGGGCCGGTTACGCGCGCGCCCCCTGCCGTAGTCGTCCTCGCCCCCAAATTTGGATGTGTCCCCAGGCATCTGCCTCCTCACCGGGCCAGCATGCCCTCTCGCCCCCAAGTAGGACTCAGCCCGGCTTCTCGCAGTCCTCTCGCTAGGGCGAGGG
0.05872962038928622 GAGCTGGGGTGCGTCCAGGCGGTCGCAGGGGCTGAGCACCAGCGGGTACAAGCGGGACTCAGATCCAGCCCCTTGGGCTTCAGCCCTACCGCCTGAGGAGGAAGGCGCGAAGGTTGAGCCGCCGCGTGGCGCGCCCGCGTTAACCCCTGCAGCCGATCTGCTCCTGCTCACCTGTTTCTCCCATGGTAGGGGGCCCCTGG
0.06400064837349793 CCTTCCTTCGCCTCGCCCTCCCGCCACGCTTCGCCCTCCCCCTCGCGCGATCACATTCTGTAAGGCCCAAAGCGTGCGCATGTCCCCCTAGCCCATCCCCCGGACGCAGTCCACAGATCCCCAGTGCGCCCAACTGGCGAAATCTGCGAGTTCCCGGTGCGCCCCCTGCTCCCGGCAGGTGCTTAGTGCGCCCCCAAAGC
1 ACACAAGGGTCTGCATTGCGTCCATTTCAAGAGGTGGCCCCAGGACGCGGGCAGCCCAGGCTCCTGCTGTTCTTGGGCAAGATGAGACTGTTCCCCCAAATCCCATCCTTCTCCTTCCAACTTGGCTGAAACCCACCTGGAGACGCAGTTCACGTCCAGGCTCTTCCACTGTGGAATCTTGGGCAAGTCAGTAACGAGCC
0.07369872501731053 GGCTTCCCAGGCACAGACGCTTCCTCACGGTCTCCTTCCTGCAGTCCTTTGGGTCCAGACTACTAGCATCGCCCTCTGCGCCCCCGGTGCGCCTCCGCCAGCCTCGGCTGGACAGCGGGTCCCCATTCTAGCCGAGGGTCTGGCAGGCTCCGCGACTGCTCGGACGCCTCCCCCAGCCCTAGGCAGCTCAGGGTCCCGGG
0.6559756070818668 CTCAGAGTCCGGGGGTCTGGGGGTCCCGGGCCACACCTGGCCTCTTTTCTCCGCCCAGCGCCTGTTCAGCCCCCTTCCCTGCCGGGGTGAGTCGCGTGGACCTGTCCGCTACTGTTCCTTCTACCCTCTGGAATGCTTTCTCCGGGGTGACTTGGTGCAGAAAGAAGCAAACACTTGAAGTGGGCTGGTTGGATTCGCTC
0.06878613808507417 ACATGGGCAACGAGATCTCCTACCCACTCAAGCCCTTCCTCGTGGAGCCCGACAAGGAGCGCTTCTGGCAGCGCTGCCTGCGCCTCATCCAGCGGCTCAGCCCGCAGATGCTGCGGCTCAACGCCGACCCCCACTTCTTCACGCAGGTCTTTCAAGACCTCAAGAACGAGGGCGAGGCCGCCGCCAGCGGCGGGGGCCCA
0.4372071504343412 GCCCGCAGCGGCCCCCTCCCGCAGACACCCAGATCCTGATCTCCTAAAGGCTACAGATAGTGTTTGTTCATAGAGTGTTTGTATGGGGTGGGTGTACGTGCTACGAGCACGGCGCTAAAGCGCAGTTGCCCGGCTTCTGCCACTGCCAGGAAAGCGCTCCGGGCGGAGACGCGCTAGGCGCGCCTACCTCTGGCTTCCGA
0.007582450344500945 CTTTGGGCCCCTGGCCCTCGGGCCTGCCGGGCCCTCCGCTGCCCTTCGCCTCTTGTCTCAGCAGCTGCAGGGCGAGTCTGGTCCGGACCAAGACTCAGCCGGTCCAGTCCTTGGGCAATCTCTGGCCTGGCGCTGGGCTGCCCGGAGTGGGGTGGTGGGGGGCGGGTGGCGTTCACAACCTCATGCCACGGGCCGCACGC
0.38793095027444 GGTCAAGGTGGCAAGCAGAGCTGGGGGCCCAGAGTCCGCTCCCGTGCCGCGCGGCGAGTCGCTTACATGCCCAGGTCGCTGTAGGTGTTGAAGAACTCCATCTGATTGCACGCCTGAATCCAGCCCACCACCCAGGTCTCGTGGCGGGGGATGGGGGGCATGACCACGCGGGCGGAGGCTTTGAAGTAGGGGGTCTTGTA
0.8759123955412419 TGCAAAATCTCCCCCACTCCTCTCAGCCGTTGGGGCCTAGGGATGGGTAGGGTACTTTGGCGGAGGCAAAGCTTCGCGGTGATCTCGGGGTGAACCGTACTTGCTCCCAAACCTCGGAAGCTTCCAAGCACCTCAGCGCCAGGGGCATCCTCAGAATGCTGATTTCTCCGAGAGGGGAGGCCAGAAATTGGGCACGAGTT
0.1995568054363739 GTCCGCGTCTCTGGGAGCCCGGCGGGGTGGGAGGTTGCTGGCTGTTGCTGTCCACTCCGGATCCTGAGGCCGCCCAGGGTACTCCTACCCCGCCTGCCTCGGTGCCCCTGACCTGCAGTCGTCACCTGCACTCCAGGCGGGCAACAACAGCGAGGACACCCTGCCCGGCCAGGCTCCCAGCATCAGAGACGCTGGGTGGA
0.5799864145907538 CCAGAACCTTGGGGAGGCAGCCGGAGGAGGGGTTCCTAAAGACTCAAAGGCGGCCTGGTAGGAGCTTGGCAAGGATCCTTTTTATCCTAGGCTGCCCCGTTGCAGGAGCCCTGCGCTAGGGCTCCCTGTAGGTCGGGTCATACTGTGCCCAGGGGCAAAGGGCACCTGGAAGATCGCGGCGGACCTCGGCGTCCTTGCGT
0.4927117890399783 GGTGGGCGACATCCTTGTCACTGTTTCTTCCAGGACGCGCCCAGTGTCCCCAGCCGTCTGCTGCTTTTGGATCTGGGTATTTTCCCAAGTGCACCAAGGGGCGACAGGGGCAGGTGTCCCCGCCCAGGGCGACCCTCCCTTTGCCTCTAGCCTGCCCTTCAGGGTCCCCGTCCCAAGCCCCCTGGGCACATCCCAGGCGC
0.8032530085665761 ACTGTCACTAGAGCTCCCTAGCCCTGGCCCAGGAAGATTTAAAATCCCTTAAAATCCCTTAGACTTGCTCCCGAGCAAGTCTTTCCCTATGAAAGGCCAAACTCTAAGCTTCGTGAAGAAGCCTCCTACAAGGACACTGGTCTGGAGCGCCCGGGCCTCCGCGTCTCCAGGAGTGCGCGCCCAGAGCGTTTCTAGCGGAG
0.7081610723047437 AGTCCAACACCCGCGTTCCTCGAGTTTTAAAAGCACACCTGGGGCCAGAGACTGCACAGCCAACTAAACGGAGTAAACGCAACAGGTGGAGGAGGCAGAGTTGTCAGGGGCCAAGCCCGGCGCGATCTGGCCAGTTCTTGGGGAGCGCGGACCTGGGACTGCAGAGAGGCGTTTTGAAGAGTGCTGCGCGCACCTGCCTC
0.342753925519605 CCAGCTCCCCAGCGGCGCAGCCGCGAGCCTCATTATTGTGTCTTCTCCGGGCCCCCCCAGGACAAAATCTCCACCCGCTGCGGTGCCGACAGAACCCCCAACCTAGCTGCACATACAGGCCCCCAGTCAACAATCCAAGCGCCCCCCCCACGTTGCGGTGCCATTAGACACCCCCATAATGGAGGCTCAGGGAGCGCCCC
0.9545161306667898 GGGTGTGGCCGTTCCCATTTAACGATGAGGAAACTGAGGATTGCCCAGACCACGCTGCCAGTAGAGGGGCAGAGCTGGGGTTCCAACCCCAGTCTATGTCCCGGCAGAAGCTGCCACAGGAGGGGAAAGGCGCTCACTCTCCGTTGAGGACCCCAACAAACTGCAGGCTCTTGGGTCCGGAGCTGGGTTGGGCACCAGGT
0.3921302742006658 CCAACCGTGCCTGCAGGAAGCCCCTTTGTTCCTCCTTGGGGCCCCAGAGCACCTGAGTGAAAGAGTCTGAGACCGGAGGGGCAGCCAGAGGGGGCCCTGGAGGGAGGCGGAGGGACCCCCTCCCTGGGCCAGCCAGGCCAGCGTCTGCCAGAGTCGCTGTTGCTAAGTCCTCTTCTTGCAGCCTGGGGATCCCAGAGGAC
1 CAGCTTGTTGGCACAGCCCTGAATCCCTATCTCGTGGTTTCCAGCGTTTAGCCTGGCTGTGCCTCCAGTGGCCCCTCAGGGCATCTGCAGGTGACTTCCCTTCATTTGCCCAACATTTATGCAGCACCTACTATGAATCAGGCAGCATGCTGGGGCCTGTGGATAGAAAGATGAAGAGCCATAGTCTTTGTCCTGCAAAG
0.4686446961555969 TCCCAGGGACTCTGCCCAGGAAATGGAAACCCGTGAGGGCGCTCCTCAAAGCCGAGGGTGGTGATGGCCAGCGAACCCGAAAAAGGGGCAGGGTGGGCGCCCTCCCATCCGCTTAAGCAGTAGCCCATTCCACTGCCCCACACGCCCAGGAGTGGACGCAGGAGGGAGCCCCGTCCGAGTGGACGCAGGAGGGAGCCCCG
0.5941711157579773 TCATCTGCACAACAGGGGAAAATTCATCTCTGCCTCACAGGGTGGCAAGGAGCTGGCTCTCATCTGCATGCCCAGCTCTGGGCCCTGGGCGCCCGAAGGTTGGAGACCGGCATGTTGGAGAGGAGCCTGCGCCCCCCAAGCCCGCTCAGCTCCCGGCACTCGCGGAGGTGGAGGTCGGAGGGAGCTGGGAGATGGAGCCC
0.6752916124634317 GGGCGGACGCTGTGGGGCTGGAGAAGCTCCTGGCGGGGGTAAAATCAAAAGGGGGGGAGGGGAGGCAGTAGAGATGGAGCTTCCAGAAACTCTTCCGAGGCACCAGCTGAGAGGTTTAAGAAACCCGCACAACGCCTGGGAAAATGGTGCGTGGACGCGTCTTCCGAGCGCAAAGCCCACCAAGGCGCAAAGTGCCGATG
0.4661410293283251 AAATCACCGGCGCGCAGGGACTGGACTCGCGGGTAGCGACCCCCCCAACCCCCCCCCCCCCGCCCTACACACACACCCTCGCGCCGGCTGAAAGCATGGAGGATTCAGGGCATTTGAAAAAAGAGGGGCTGGGCGCGGTGGCTCACGCCTGTAATCCCAGCGGTTTGGGAGGTCCAGAAGGGCGGATCACTTGAGGTCAG
0.4515748323894058 GGGCTGCCAGGGTTAGGGGTCCCCCAATCTCAACTCGCCATTCGGGACGCATAATATCCCCGAGCAAACGTCTGGAGAGCAGTGCCCCGATCCCGGCCTAGCGCCGTCCGGTAAAATTTCGGAAGCCCGAGGGTGTGAGCAGGAAGCTTTTGCGAAGCGGCGCGGGAGGAGGGGTGCTGGAGGCGGAGGGTAGGCCCTTT
0.4561658019431837 CCCATCCTGCGGCTCCAGCTGGCCCGGGAGTCGAGGAGAACTGCCCAGGTTCCCTAAGAACCAAAGTGCTGGGAGCTAGAGTGGTGCCACCAGGAAGCTGGGGGGCCTGGAGAAGAGAGGCTTTTTCCTACAGACGGGCCCTGAGCGGGGATAAACCGAGCGGGTGTCTGTGGGCGCAGACGCTGAAACCTGACTTCGGG
0.4561541574973383 GTGCCCCTGCCCCCGGCGGGTATTACTGTACACGGTGTCCGGGAGCCCGGGTTGGAAGAGCAAACGAATGGCTCAGCCTGGAGGACACCGTGGAATCGGGCGACCCCTGACCCCGGGTGACACCCTCACTGCCCATAGTCCTGGGATGCGCTGACCGGTGAGGCGCCAGAGGCAAGCCGTCCAGCCGCCGATCTTGGGGA
0.3673538933786936 CACCTTGGCCGCTTCTTAGCCCCAAGGGATCTTTCCTTTGGACCCCTGGGGTGGGATGTCTCAGGGCCCGCGGAATCCGACTCACCTTCCCGCTGGGCTGCCCGGGACTAAATTAACCAGCCTGCGCCCCCACCCGCTTGTCCTGGACCCGGCCCTCTTAAGCGCGTTCTGCCTGGTTGTGTGTGGGGGGAATGCTTCTG
0.2023433635239794 GCGCGCCTGGCGACCGCGGGGAGGACTGGCGGCCCGCGGGAGGGGACGGGTAGAGGCGCGGGTTACATTGTTCTGGAGCCGGCTCGGCTCTTTGTGCCTCCTCTAGCGGCCAAGCTGCGAGGTACAGCCCTCTATTGTTCTAGGAGCACAGAAACCTCCTGTGTGGGCGGCGGGTGCGCGAGCTAGAGGGAAAGATGCAG
0.2898976593134552 TCCAGCAGCAGCAGCTGCTAAGGTCCCACAGCTCGGGCCCGGCCATGCTGCGGAGAAAGCTGGATCCGGTGGCAGCCCCGGCACGTGCCGCAGTGGGGTTCCTCTGAGTCCCAAACCCAGCAAGCCTCCAGCAGCGCCCGCAGGCCCCGTGCACCAGGAAGCCCAGTTCTGGCCCCTGAGTGCAGGGCTCCCAGACGCCT
0.4793246348694642 CTCCCCACCTGCCTTGGCCGGTGGCCCAGGCCAAGGACCGCAGGTTTGGGAAGGCTCCGTTGGCGCCCTGGCCCAGGGTTTGCGGAAAGAAGGCTGTGTTAGCTGTGCCCTGGGAGGGAGGCTGCAGAGGCCCACCCAAGTACGGCTCCCCAGGCCCTTCCGGACGAGAAGCACCCATATTTCCCTTCAAGGGATTCCGC
0.06340621277453917 GGTCCGCGCTAAGGAGCCGAAAGGGGCCGGCCGCCCCCTTCCCCTATGCACCGGCGCGCCACTGCAGATGGCTCACCCTCCCCCGCCAAATCGCTGCTCCCGCCGGAGCTGCCGTCGCCATGTCGTTGAACTTGAATGGTTCGTCCTCCCCTTTTCCCTCTTCGGCGGTCAGCAGGCTCCATACTGGGGGCGCCGGGCTG
0.6475951961618968 TGAGCTGGTGTCCCAGTGCTGCCTCCGATCCTGAGCCTCCGAGCCTTTGCAGTGCAATGTCCCGCCTGCTGCATGCAGAAGAGTGGGCTGAAGTGAAGGAGTTGGGAGACCACCATCGCCAGCCCCAGCCGCATCATCTCCCGCAACCGCCGCCGCCGCCGCAGCCACCTGCAACTTTGCAGGCGAGAGAGCATCCCGTC
0.2581325623393761 ACTTTGATAGTCATAATGACGCCGGTGGCAACCATTTTAACGAAGATCAATCTTCACTCCAGGCCGCTCCTCATCTCCCGCGGTTGCGCCCACCCTTCCCTGACCCTCCAAGCACTGTGCCCACCCGCCAACGGCCCAGCCGGAGAGAGATTCGCGGACACAGGCGGAGGCGAGGGAGGACGGGGATGGGACGCGGAGGT
0.07373593102389846 GACGGGCGGATGGCACCTCCAAGGCTCGGACCTTGGGGCCCTGCAGCCTTGTCGAGGCCACCTCGAAGGGTAGCCTCCGGGGCCCGCACCCCCACGGCTGGGCCGGGGGCGCTTTATTTCTTTTACTGTATTTGCCATGGAACCAACCTGCCTGCGGCTCACTCCAGCGCTGGGTGCTCCGGCTGCGCCTGGGGTCCGGG
0.7062345045893528 CGCGGGGCCGGGGGAGCTTGGTGGGTTCTCGGAGGCTTGGAGTCCTGGGTCAGTAATCATGAGCCCCCCATTGAAAAGGTTAGGAAACTAAGGCTGGGGACTTGGGGACTTGTCCAAGGTCACACTCAGCGAGTGAGGGGTGGAGCCGCCGCTAGACCCTAGTCTGGGCTCGGTCCAGCGGGGACTGAGCCCGCCCTAGT
1 ATGGGGGAACCGCAGACAGAGGGCCGGGGTCAAGGAAGGCCTGCGAAGGAAGACAAGGAGAGAGACGCAGAGAAAGAGGGAGAGGGAAAGAAAAATAATGAAAACAAGGAAGCTAAGCTAGTACTCCCAACAACTTCCAATCTTTAGTTACTTAAAAACAACAGTGACAACGCCCTCTCCACCACACGCACACACATGCT
0.1425640174387114 GCGGGGCTGCAGAGATGGCGTGGAAGTCCTGGGCCTCGTGCTGTCCTCCGCCCCGCCCCGCCCGGGGGCTTCGACCCCTTGCCGGGGGAATGGGGTCGCAGCGACAGCCTAGCAGGCGGAGGGAACCCACTTCTCCAGCCTGACGCTCCAGTCGCCTCTCGGACTCTTCCTGGCTGGGAGCAGCGAAGAGAGGGCTAGAG
0.107495570302672 CTTCTGTGCGCAGACAGCAGCCTCCAGGCAATCCCCGAGCCCGCCCGCACTCCCCGCATCTCAAAACCGGGGCTAGAGGTCCCTGTAGCTGCGGCCAAGCCAGGCGGTCTGCCCTGCGGCGGCTGCACAGGGGCAGGAACCGGCCCTCAGACCCAACCCCGGTGGCTGCAGAGGGCCACTGGCTAGAGGTCCCCAGCTCC
0.2223892960804786 CCTGCGGGCAAGCCAGGGAGGGGGCAGCGGCGGTTCATTCTCTGAGCATTTTGCCCACTCCCGCCCCGTGTCCCGCCTCTGGCAGCTCAGCTCACCGCCCCGGCCAGGCTGAAGTCCTTGCAGCAGGGGAGTGGGCGACCCTGGCCAGGGCGGGGTGGAGACAGAGCCTGCAGTAGGGAGCACGACCTGGGAAGAGACCC
0.1296489895578421 GAAGGAATCCACAGAAAAGTGTGTCACTTCAGGCGCCGGAGCCTTGCATAAGCGGGCGGGTCGGCTCTGGGCTCTGATTTCTCGCCCGACGAACCCAGGCGCTCGGGCTCAGCCCGGCGGGAGGCGGATCCCTGAGAGGGACACAGCCGGGTCCGCGTCCACCAGGCGCTCTCGGGGAGGACGAGGCCTGAGGCTCCAAG
0.08162679409102269 TCGGCTGCTGGATAGGGAGGGGCCCCAGACTCTCCCAGGATCTGAGTGGGGCCGGGAGCTCTCCCCGCGCCCCCACCTCCCCGCCGATCCCCCAATCCCGGGGCGTGAGAGCCGGTACCTGGCAGCACCATCGCAGGTAGAGGCTGCGGAGGGACGACATGGTGGACAGATAGCTGAGGCCAGTGTCCGTGATGCGTACA
0.1161988509867024 TGTCTTTTACACGCTGAATTTGGCTATTGGCAAAAAAGCCCTGACCCAGAGCTTGGGTCTCCTTCCGACCTGCACACGACTCCCCGACTCCCGCCTCCAAGCGCGGCTCTTGGCTCGCTGGCGGGCAGCGTCCACAGAGTGTGGAACCGCCGCAGCCGCAGCTCCCGCCCGCTGGCGGGCAGACACTAGCAGGAGAAAGG
0.33524448746803 GTCTGGCGCCTCGCGGCCGCCCCCTCTACACTCAGGGACTGGCCTGAGTCCGGGGGGTGGGGGTTTCGAGGCGGGAAGCCGGGCTGTCCCGAATCTCGGAGGGTGCAAGGCCAGGAAAGAGTCCGGGTTCCCACTCCGCATTCACTGCCTGGTGTGACCTTGGGCGTCTCTGAGCCTCAATTTTCCTCTCCGTAAAGGAG
1 TGCCGATTGTCTTCAGGAGTCATCCCCTGGGCTCTACTTTGCCCCTCTCTCTCTCTGGGCCTCATCAGACCAAACCAAAGACCATGGTTCACTGTGCCGGCTGCAAAAGGCCCATCCTGGACCGCTTTCTCTTGAACGTGCTGGACAGGGCCTGGCACGTCAAGTGCGTCCAGTGCTGTGAATGTAAATGCAACCTGACC
0.02642412537217241 CCCGCGTCGCGGCGCTCTCCACTCCGCCCGCCGCCAAGAGCGGAGCGGTAGCCAAGCGCCCCCGGCCTCCCCACCCCCACGCCATTCCTTCAGACTCTCCCAGCCTAAGCGGAAGTGCCCCAGCAGACCCCCAACAATGAGGATTTGTGCGATGCAGTTGGGGGTTGGGGGTAGTTCACACGGAGTGAAACGTACACAGT
0.4806036679310171 AGTGAGAAAGTCTGAGCGCAGCAGAAGAGAATCTTGCGCACAGTTTGAGGACGCTGGAAAATGCGGAGGCGCCGAGGGAGGCGCCGAGCAGCAGGAAGAAAGACAAAGAGATGCAGAATCACCGAGAGACTGGCCCTGGGACAGGCGGATCAGGAGAGCCAGCGGGACCTAGAGACAGCCCGCGGGAGAGCACGGGCCGA
0.3168676668326368 TCTGTGTGCGGTGTAACCATGCGCTAAGGACCTTCCTCGAGAGCAGCCTTGGGACCGAGGTGCAGGGGTCGCGGCCCTCCAGCATGAATGTGCCCGCTCAGCCGACGTCTCCCTTCCCGGTCTGACCGCAGGTATCTGGCCATCCGCTACCCGCTGCACTCCCGCGAGCTGCGCACGCCTCGAAACGCGCTGGCAGCCAT
0.2706113028531564 GCCGGCGTGCTGGGCCTGAGTGCGTCCGCCGAGTGCCACCTGTGCCCAGTGTGCGGAGAGTCGTTCGCCAGCAAGGGCGCTCAGGAGCGCCACCTGCGCCTGCTGCACGCCGCCCAGGTGTTCCCCTGCAAGTACTGCCCGGCCACCTTCTACAGCTCGCCCGGCCTTACGCGGCACATCAACAAGTGCCACCCATCCGA
1 GCAAGAGCCAGGCTGCCTATTAGCAGGAACATGGGTGCTCGCAGGCTGGGGTTGTGGAAGATGATAAGGACCACAATGGCATTTTCACAGGAGATGAGGGTTCCCGAGGTACACAAGACAATGTCCCAGGGGTTGACTACGAGCTCAGGCTCTGGCTCTACGGCAGGAACCCGGGAGGAGACAGCAGCCGAGATGTTCTC
0.5529912565238684 CGCCGGCTCCTCTGCCTCCCACCCCCACTGGCACCCCACGCCTGTCCTAGAAGGTTCTTTCTGCCTGTTTTCTCCGTGAGTGACTGGACAGGCAGAGGCCGGCCTTGCTGGAGGGGGCATTTGTAATTATGAGTGAATCCAAAACAAGGTTTTTTCCTTCCGCAGCCCCCCGCCCGGCTGTGGGGCCCAGCCACTGCACT
0.42789260243495 CGCAGGCTCACCTCACGCAGGGTTCCAGCGCGGCAGCCCAGGTCCTGGTGGCGCTGCTCCTTGAGAGAAGCCTGGGCGGCAGAAAGGCCCTTGCACGATCCCCGCGCCACAGCAGCTTAGGTACTTGACCTCCTGGAACGCGTCGTAGTGCGCCGTCAGCGAATACCGGGCTCCATGGCACCGAGGCCGCCGCGATGCAG
0.7042848700485241 CACCGCCGCGCCCCGGCTCGCCCCTCGGGCCGCGGCGTGTGCCCAGCCTCACGTCGGGGTGTGTGTGGCCGCGCGGGCGTGTGTGAGTGTGGCAGGGGGAGGGGGCCCTCCGATCTGCTCCATCCGTCCGTTTTATTAGGGACACATTAATCTATAATCAAATACACCTCATAAAATTTTTATTGAAAGGCATAATATCA
1 TTATTCAGGCTAGCCCAAACCTTCATTCACTTCTATGCCCCCAGCGGTATCTGCAAATGCTCAGTGCCTGGAAAAAAGAGATCTGGCCTGGACAGAGTGTTTTGAGTTTCTGTGCAGAAAAAGTTGTGTCCATGGGGTGGGATGGTCAAGGGTCTCCCTCTGAGTGGGCAGAGGCGGAGAATCAGGATTGAGAGATGGAC
1 CCCTCTCAGGAGTCGGGAACATCTAAGAGCATATCCCCAAGTCTGACCCTCACTTTGCACAAGTCTGGTGTGCAGTGGTGTCCAGCCGAAATGAAGAAGGTGGGCACAGGTGGGCATGGGGGAGTCGAGGGTCTTCAGGAGCAGGTGGGGCCATCGCTGGCAGAGATCACAGAGATGTCGTTCCCAGAGTGAGGGCATCG
1 TGTGCCTCAGTGTCACCCTTGGGCCTCACCCTCAACCCCCAACCTCACCCGATAAGACCTCGGGGCCACAGCTCGCCAGGTGGAATTTCTGCTGCTGTCCGGCCATTAACCACCCCTGACCTTCCCAGCTCCACCCCATCCTCGCCCTCTCCCCTCAGCCTCTCCTTCACCCTCCATGCAGCTGCTTTCTGTTTGCCTTC
0.4368882282219221 CTCCTTTCCCAGCAGGGAAGCTGGAGACCCGGCTCTGCTGGAGCCTGCCTGAGCAGGGCCCCAAGCCCTTGCGCCCAGGCCGGCCCTGCCTGGAGTCCAGCCTGCCCTGGGCTGGGCGACCTTGGGCCTCTGCTCTCCCATCAGTAAATGGCACCCCACCGGCCATGCCAGGGCAGCCACACCCCCAGCGTGGTCCTGCC
0.8397922721694725 GAAAGTCTTGGCAGACACCTGCGTCACTTTGTAGTGCCCCAAACGTCTCTCTTTTTGCAGACCCTGGGAAGGTGGGATCCCTTGTCCGCGGAGCTGGCAAACGGGTCCAGTGAGCCCTAAAGGCAAAGGCTCCCATCCCGGCCGCCCAGTCCCTGGTGCCTCCCCCACTTCCAGGCCTTTGTCCCTCTCCTTTCTCCAGC
0.1990441961672284 TCGACAGCTGCGCGACGCCAGCCCCCAAATCCCCTCTGGGCGCGGCACCCCCGGGATGAGCCCCCCACAGAGGCAAGCCCACTAGAGCTGAGATTCACTCCGAGTTCCTGAGCGCCTGAGCCGCGGGCACTGCGTCTCTGCAGCTTCCAGCCAACACCTGCGCCCGTGACCAGACGAACGCCTAGAGAGTCGGACTCCCC
0.09385868849352193 CCAGCGCCGGCGGCAGAGGCAGCTGTGACACGCCAGGCATGGCGGCCGCCGCCCAGCGGGTGTCGTTGGCGTGGAAAGAGCACAGGCTGTCGCCCATGGCGGCGGCAGCGGCGGCGGCAGCCGACGGGAACTGAGGCAGGCCTGGCGTGGGCAGCAGTGTGCCGGGCGCACGGAACACGTTGGTCGTCTTTTTGCGCTTC
0.9054161819346523 CTCTGCGAGCCCTCCGCATGGGTCCACCTGGCAATGAGGGGCTGCTGTAGAGAGAGTTAAGGGTGAGTTAAGCACGGGGTGTGAGGGGCTCCAGGACCCTCAATCAGAAAGCGCTGTGCTGCGCCCTCCACACCAGAAAAGGCGCGTTCCGTGAGACCCTCCCCAGCCTGGCGATGGAAGTGCAGATAAACCAAAGGAAG
0.7881404687572984 GCGCAGCAGCAGAGCACGTGGGAGAGGCGTTGGGTGCAGGGAGGTAGTAGCTGCTTTGGAGTGGATGGTGGAGAGGGGCGGGGGACAGAGGGGTAAGAGGCAGATCAACCCCCTTTTATTTCCCACCGCCGCCCAAGGCCCCCAGGAGCTACAATACCAAGCCCACTTTCCTGGGTAACCTTTCTCTTCTGAGTTCACCT
1 GCAGATTGGGAACAGATGTGGGTTTTACAGGTTGGGCTGCAGATTGGGAACAGATGTGGGTTTTACAGGTTGGGCTGCAGATTGGGAACAGATGTGGGTTTTACAGATTGGGCTGCAGATTGGGAACAGATGTGGGTTACAGATTGGGTTATAGATTGGGAGTGGCTGGAAGGTTGTTTGCTGTAAAGTGGAACCTTTGA
1 ATCCTCTCCCCACAGCACCCAATCCACACCCCACAGCACCCAATCCGCCCCCCACAGCACCCAATCCACACCCCACAGCATCCAATCCGCACCTCACAGCACCCAATCCGCACCCCACAGCACCCAATCCGCTCCCCACAGCACCCAATCCGCACCCCACAGCACCCAATCCGCACCCCACAGCACCCAATCCGCTCCCT
1 TCCTGCAGTCAACTAGGACTTTCTGATCAACTCAGTTGTAGGAAATATCTTTCCTACCCGATGGACTGTTCTGTTTGAATTGAGAAAATGCTGAGACCCCACTGGGTTGATCTCAGGCCCTGCCACATGGAGAGCTCTAGGTGACGCCTGGGGGACCTTCGTTGTGCCCCTATGTCTGCGGTCCCCGACAGTCAGGGTCT
0.818008404352024 CTCCAGCCGCTCGCTATTTTCACACCTCCCGGTGCCCCGGCCCCGGCGCCTGATTCAGTGCTTAGTAATTAATTTGGCGTTTCAGAATGGTCAGCGGGCTGGATAATGGGTGCATTCATCCCCCGGGCTAATCTGAACAGAGGTGGGAAGAAAGGCTTTCACAGACAGAAAATGCCATTCGCCGAGCGCTCAAAGGGGCT
0.5307500825284278 TAGGGGCCAGCGAGACAAAGGGGGCAGAGTTGGGGGAGGGAGTCGGCTCATTGGGGGCATGCCGTGGCGCTCCCCGCATGTTGCCAACACCTGCGCAAGTGGAGCGGCCCCATACTAGGGCGCATGCAATACCAGGTGCCGAGGACTCGTTCTAGGACGCTGAGGAGGCGTCCTTTTTCCCAGTTCTCCCTGTTCAGCCT
0.1077344520020066 TCTGCGGGTGCCGCTGGGCTGCGTGCCGGCGAGGCGTGCGCGTGGCGAGGCGTGCGCGTGGCGGGGTGTGGCTAGAGGTGTCAATGTGCAGCTGGAGGGGCTGCGCGCGTGGGTGCAGGAGGGCCATGTGAGGGGCTGGAGTGTGTGGGAGACAGGCGTTTCCTTGGGTCTCCGTGTGGCCGCCGGGCGCAGGGCACGGT
0.7497499063661796 CCCTTCCCCTTTGAGCGCCAACTCCAGCCTCACGGCGGTGGCTCACCACAGGTTTCCCCACCTCGGGAAGTGAAGGGCCAGGAGTTCGCCTAGAAAGGAGGGGAGAAGAGGGTGGGACTCCTAAGCATTTCACGCCTTGGGTGGGCAAGAACTGCAGGCCATGATTATCTCGCTCAGGCTGACCGGAAGAGGCTCGGAGA
0.7325846048773729 TGGGAGAGGTGAGACTGCCAGTTCCCCTCCCCTGCCCGCCTAAGGAGGCTGGAGGTTTGAGGCACTGAGGATGCCCCGTGCGGGCTTAGGCAGAGCTGTGCGCCGGCTCCAGAAGGTCACCTCGCCCGCAGGTCCGTTGCTGAATCTCAGTAAAGGAACTAGGACAGTCAGGGGGCCAACAAAGGCTACCGCCTGGCGGG
1 TCTGTAGAGTGGGAATAATCATGCCCAGCTTGAGGGTTGTAGTCACCGTTCGAGAGGATGTGTGTTAAGTTCCTGGCATAGAGCAAGCCCTCGGGAGATGACAGGGTTTTCGCTAGTGGAAACCACTGGCACTCTCAGCACTGAGCGCCTACTGTATACCAGGTGTTGGGCAAACCCGCACTCCAGTCACTTTCTGAGTT
0.1130283287632195 GTTCTGCTAGAAGTCATTCTGTCTCCCGCTGGTTTAATATCCGCCCTCTGCGGTCTCCGCTCGCCTCGGCGGCTCCCGAAGCGCCCCCGGGAGGGTCCCGGCTCCGCCGAAAACTGCAGCCTGCCAGGCTGAGCCGCCGCGCGCTGGGAGGTTAATAGCGACTGACGACAAAGGGCCAAGGTGCAATTCCTAAAGCGGGG
0.6035550901570017 ATTCCGAGACCTAAAGCAAACAAAGTCTCCCCAATAAAAGCTTTCTTTGCCCCCAAACAAAACCTCAAATCTAGAAGCTAGAGCGCTGGGAGCGCACAGCAAAAGGAGGCCAGACAGCAGCCCAGGGAGGGGCGGCGTGAGCTCAGGACGGTGACTCGGGAGTACGCACCGGCCCGCGCACGTCCAGGGACTCGCAGGAG
0.06194404847078581 GCCTGGCGCCGGCCTCAGAACCCCGTTTACGGCTTTCCGCGCATACGGAGGTTGCTGGGGACCCCGACACCTGCGCGCCCTCGACTGGGGCCCGCTCCAGCAGTGAAGACCCAGGCCCTTCCCTGGGCCGTGGCTGCTCTTGGTGCCTCATGGGAGCGCCCGGGGTAGGGACTCGGCTAGTGACCTGTAGGACATGAGGG
0.05964978587089531 GCTGTTGGCGCCAGCCGCGACCCCCAAGGACGGCCGGATTCCCCTCGAGAGAGGACCCCGAAGGGGAAGCCGCACGCCCAGCAGCCGGGTCGAGCCTCTGCCTCGGACTCCTCGGCTCCCTGGAGCCGCTCCACCGATGGCACCATCTTGGCGCAGAAACTCGCCGAGGAGGTGCCCATGGACGTGGCCTCTTACCTCTA
1 CTCTCTGCACAGGGACGTGTCTCAAATGCGCCTTTTCTTCTCTGTTCTTAAACCCCAGGAGCAGAAGCGCTCCCGAATCTGGAAACCCCTTTTCCTGACCTGTTGGCTCCTGGTCCCTGGCCCCTGCCCTCTTATACACTGAATTTGAATTTTCCAGGCGCTGGTGGTGAAATCAGAAGAGTCGAGAACGCAGCTGGCGG
0.7298530408310374 GCAGGGGAAGCAGGAGGCGCGAAGGGGTCCGAAAAAGGAAACGACTGGGGGATGTCTAGCGAACGGGGGTTCGGCAGAGGTGGGGGGCTCGTAGTATTCAAGGAAGAACGCTCGAGGCTGCAGAAGAGGAAAACGCTCTAGAAAGCTGAGCGGTACAAGGGTGCTGTGGAGTCGGGTCAACAGGGCAAGAAGGGAGCGTC
0.2111879720961108 GGGCCTGGCTGCGGTGATTGATGGCGCGCGCTGCAGAGGCTGATTAACCCGGAGCCGCTGCAGCCGCGGTGTGGAGCGCTGCTGCAGTCCGCCGCTGTCCTCGCGGACTTGTTTGCACAGAGCCAAGAAGACCGATCCTGGCCAGCCAAGGAAGGTTCTGCTAACAGAGAGGGCCGGGGTCGAGGAGAGAGAGAAGCACC
0.3313306845701231 GCTGACTACCAACGCCCACCCCAGACTTGTACGGAAGGAGAGAGTAAAGGAGTCGCCGCCTGGCCAAGGCTGCAGCAGCCTACAGAGGCTCAGCCGGAGACGCACCATGACCTTGGCCCTGGCCGAGACCCCTTTCGGAGGGCTCAGACCGGCGAGGAGCCGGAGCGAGCGACCCTGCTGCGGTGGCTCGGGCTGCGCTC
0.3088680772460757 GTTTCTTTCTATGGAGAGGGTCCCCCTCGCCCCGCGCTGCCCGTTCTCGCGGCGCCGGGCGTTTTTGCCTGAGCGGGGCTGGACGGGTGCTGCGGGCCGGGCCCGGCTGCGGAGATCACAGCGGAGTGGAAGCTCTGATCGATCCGCAGGGCTGATACACACTTAATTAAACTCATTTTGTGTAGTGTACAAACTAGTTA
0.1309311090763886 CGCCTGCTCCTCTCCTCCAGCCTAGTGGAGGCCCTGGACGTCTGGGCGGGAGTGTTCAGCGCGGCCGCTGGAGAGGGCCAGGAGCGGCGCTCCCCCACCACCACGGCGCTCTGCCTCTTCAGAATGAGTGAGATCCAGGCGCGCGCCAAGAGGGTCAGCTGGGACTTCAAGACGGCCGAGAGCCACTGCGTAAGTCCTGC
0.08501023938180745 CATTTTGCCACCCGCCACCGTGGCTTTTTGCTGCCCGCCGCCGCGGCTTTTTCCCCACCGCGGCTTTTTACCGCCCGTCGCCGCGGCTTTTTGCCCACCCGCCGCCGCGGCTTTTTGCCCCCACCGCTCCTCGGCGTTTTGCCCGCCGCGGCTTTTTGCGTCCCCGCCGCCGTGGCTTTTTACCACCCCCCCCCACGTGC
1 GGGAGCGAGTGAGCAGGGATGGGGAAGCGTGGAGGGTGGGAATGGTTAGTGAGCCCAGGCAAGAAACTCATCAGCCGCATCCTTCAGAACACACTGGGCGTCCTGAACTTAGGCTTCTGGGGACAGACACCTACCCTCGATATTGTTATTCCAACGAGCCCAAGAGTGCACTTGCAAAAAAACAAAACAAAACAAAACAA
0.1901905631171198 CTCGGCGGCTGGTAAAACTTTTCCTGACTGCAGGCGCGACAGAGGGGCCCTGCCCGTCCTCGAGTGCTCGCCACTCCTGCCGTGATCCGCAAAGTCGGGGAGAACTTCGGAGGCCCGCACTTGCCCACCTGCTGCGTCCGGACTACGCGGCTTGGGGATCGAGCCGAGTCAGGACCCGGGAGAGCGAGGGGCTCATAACC
0.4784148045754798 GCGGAAGGCGCTGCGAAAGTCCGGGCTGCGGCAGTAGATGAGCGGGTTGAAGGCAGAATTGGCATAACCTAGCCAGTTCAGGGCAAGGAAAGCCGGGCCCGGGACTAGAGAGGGGCCCCCCAGGGCGCGCAGCACGTTGGCCAGAAAGAAGGGCAACCAGCAGAGAGTGAAGGTGCCCATGATGAGACCCAAGGTGCACA
0.4874793206182202 CATCCGGTGCCTGCATGTCCCTGGCGCGGAAGGGACGCCTCACCAGCCTCGGCGCCCCCTCCCCCTAGATTTCCTCCCCGCCCCTCCCCACTGCCTGCCTGCTGCACCACCTTCCACCCAGATCACCCAGATCGTCTCTAAAGGGAGTTCTTGGTTTCCTTCGATTTCTTATGAACCCAGGATGGGCAGCAAAGAAGATG
0.7067226801568063 CCCTTGGGCTTGGTGGGAGACTCCAGGCCGCCGCCCTGCAGCACCTGCACGGGGGACCGCCAGCACCTGGGTGAGCCAGCACGTGGACTGGGGACCCCCGAGGAGACTTGAACCCAGGTAGGACTAAGGAGTGCAGGGTCCATATGAGGAAATGGTGGGGAAATGTCCCGGGAAATGGCGGCCATTTGTCCAAATGCCGC
0.4893575092390132 GCGGGGCCGACCCGGACCCTCCAGGGAACGCCCTTGAGTAACTCGCGCACTTGGGACCCATTCCCACCTAGGACCATAGGCTCAAGATGGCCTGGTGGATGCCGCCGGCACGCGCCTCTCCTCTGGCGGGAACCGAAGGCGCCGGTAGGTTTTCACACTTGCAGCCGATCGGCTAAGAGAACGCGGGATTCAGCCGAGAA
0.02700895159286193 GTCTGGAGAGGAGAAGGCCAGAGGCCGGGCGGGGTCACGGATGAGTCTGCCTGGGTCACCTCCGCAAAGGCCAAATCCACGAACCTCGGGCCTCTTTCTCTCCTCCTCCCCTGTCCGCCACTCGGCTCCCCAGACACCCTTAACAACCCACCCGCCCGCCAAAAAGCCCGCCTACACTCCGGACGGCAGCGGGGAGAGGC
0.3971401793263126 ACCTCAACTACAGCGAGTTGCCCACAGGGGACCCGTCGGGGATTGAAAAGGACGAACTGCGGGTCGGGGTTGCCTACTTCTTCTCGGATGATGAGGAAGACCTGGACGAACGCGGGCAGCCCGACAAGTTTGGCGTGAAGGCCCCCCCGGGTTGCACCCCCTGCCCGGAGAGCCCCAGCCGCCACCACCACCACCTGCTG
0.9797379498112631 CCGGCTGCTCTTTGCCACCCGCTGTACAATCCTGTCTTCTGCTAAAGCCTAGAGGGTCAGTGGGGAAGGTAGTTAGTTCTGAACTGAAATGAAATCACCCAGGGCTCCAGTGACTTCCCCAACCCGGCCATCCTGCAGGAGCAGCGCGTAGGCAGCCTCGAGTGATAGCCTGGTCCAACGGCCCACACCTTAGCGCCAGG
0.8084701673319349 TGGGTCCCTCCTCCCGCAGGGCTCTGTCTGCCCCACTGTCCACTTTGGATTTCTGCGCTGGGGAACATCAGCAGCATTTTGTCAAAAGCCCACGGAGGCCCACGCTGCGCGCCTCGCCGGTAACAGTCACTCTCCCGTTTAAAAACAGAGCGCCCTTTCCTCTCTCCCCTCTGCCCAAGACTCTTTGCCTGGCAACAGGG
0.2117619699866334 GGGATCACACCCCGTCCTGAGCAGGCCCCAAGTGTTGGAAGCTCCGGAGCTGGAGAGCCAGGGGAAGGCCTGGAGTGTCAGCTAAAGGGAGGCCGCCTGGAGAGTCCAGAGCCCTGGCAGGGAATGGAGGCCTCGGGCGCCTCAGCGGTCCTGCGCGTGGTCTGGCCGCCGGCGATAGCGGGACGCTCTGCGAGGCCGGC
0.1806364612503827 AGGGGTGGGGGACAGTGGGTGGGCATTCAGACTGCCAGCACTTTGCTATCTACAGCCGGGGCTCCCGAGCGGCAGAAAGTTCCGGCCACTCTCTGCCGCTTGGGTTGGGCGAAGCCAGGACCGTGCCGCGCCACCGCCAGGATATGGAGCTACTGTCGCCACCGCTCCGCGACGTAGACCTGACGGCCCCCGACGGCTCT
0.5350783117186388 AACCTGCTAACGGTGCAGCAGGGAAGGGGGGAGGCCAGCGGAGAGCCCCAAGATGGTTCCAGAAGCTGGCAGGGAAATGCCTCACCCACCTCACACCCTCCCTGCCACCCCAGAGGCGGCAGCGGCGAGGCCCGGCCCTCCCCACTGCAGCCCTGAGGGCTGGGATCTTGGGGATTAGTGACCCAGCCTGCTGGCAGCAT
1 AACTCCTGGCCCCAAGGGGGTCCTCCTGCCTCGGCCTCCAAAAGTGCTAGGATTACAGGTAGATAGACATTTAGTGGAGGAAGAGGCTCTCAAAGGCAATAAAATGCTTCTGATCCAAGAGAATCACGCTGCAGCCCTGGCCCAGTGAGCTTCTTAGAAAATCGATGCCTGGGCTTCAGGCACTGGCCGGAGCACGGGCC
0.6814485241678037 AAAGCGTCATAGGCCCCGCTGGGATAGAGTCTGTTGGCTGGGACGGCCGGCAGTTCCGCAGGGCAGCTGATGGACAGCAAGTCCTCAATCTTGGTCCCTATTACGGGAAAACGAGCCTCCGGGGCGGCCTGGTAGTCTCCCTGTGACCCACAGTTCCCTGGGGCCCCCACAGAAAGCAGCTCCCAGGGCGCGTAGGGACC
1 TTTGGGCAGGAGGTGACTTGATTAGATTTTCTTTAAAAACAAAACAGTCCGGGCACGGTGCCTCATACCTGTAATCCCAGCACTTTGGGAGGCCAAGACAGGCAGATGGCTTGGGCTTAGGAGTTCCAGACCAGCCTAGGCAACATAGTGAGCCCTCATCTCTACTAAACGTAAAAAAATTAGCCGGGCATGGTAGTGCG
-0.1376426903213387 GATGCTGTTTTCATAGGCTGTAAAGCTATTTGAAGAAGGTAACTTTCCTCTCACTTAACTTTAAAAGCACATGATTTTTGTGCTGTAAAGGGTTTCATTTGGTTGGTGTGTGTTGTAAGAAGTTTACGTTTTTATTCGTTGCACATGGGATGCGACATCTGATGGAGACTGCAATCCTTTTACGGCTTTATTGCAAAGCT
-0.2241502543305785 TTGGATAGCCTGGAACTTGGGTGTTTGGTTTTTTTTGATTAGAGACATGACTAGACTCAACTCTACAAAGGAAAGAGTTTACGACAATCCTCTCTCAGTGGCAAACTGAGGAAACAGAACTTGCACCCAGTCCATGCTACAATTATTGTGCCTATAGAAATCCACCAGTGGAATTACTTTTCTCCCTCTAATTAAGGACA
-1 TGTGCACCTGAAGGCTCAACACCACTGGCAGCTGCCAAGTCTTGGGGCTTCCACCCTCTGAAGCCACAGCCCGAGCTGTATGTTGGCCCCTTTTAGCCACGGCTGGAGTGGCTGGGATGCAGGTCACCAAGACCCTAGGCTGCACACATCATGGGGACCCTGGGCCTGGCCCATGAAACCAGTTTTTCTTCCTGGGCCTC
-0.004099902841181935 AGATTTCAAACTTTTTCATTATTATATCTGTTGTGGTGATCTGTGATCATTGATGTTACTATTGTAATTGTTTCAGAGTGCCAAAAACTGCACTCATATAAGATGGTGAGCTTAACTGATAAATGTGTATTTTGACTACTCCACCAACCAGCCATTTCCCCATCTCTCTCACTGTTCTTGGGCCTCCCTATTCCCTGAGA
-0.1408673988099738 CACCAATATCACAGAAATACAAACTACCATCAGAGAATCACCTCTACACAAATAAACTAGAAAATCTAGAAGAAATGGATAAATTCCTGGACACATACACCCTCCCAAGACTAAACCAGGAAGAAGTTGAATCCCTGAATAGACCAACAACAGGCTCTGAAATTGAGGCAATAATTAATAGCCTACCAACCAAAAGAAGT
-0.1172778480399578 GGTTTCGCCATGTTGGCCAGGCTGGTCTTGAACTCCTGACCTCAAGCGATCTGCCCGCCTTGGCCTCCCAAAGTGCTGGGATTACAGGTGTGAGCCACCATGCCCGGCCAAATATTTTTTGTAGAGATTAGAGTCTCACTACATTATCTGGGCTGGTCTTGAACTCCTGGCTACAAACAGTCCTTTGCCTTGACCATTCA
-0.2098759060889302 AAGCCCAGGTTGTGCTGATGCAGGCCTGTAGTCCCAGCTACTACTTGGGGAGCTAAGCTATAAGGATCACTGGAGCCCAGGAGGTTGAGGCTGCAATGAGCTGTGATGGCACAACTGCACTCCAGCCTGGGCAACAGAGCAATACCACAACTCCATAAAGAAAGAAAGAAAGAGGAAGAGAGTGAGAGAAAAAAAAAAGA
-0.2474301126750423 TCCACCCACTTCTATAACCCAGACTGACACAGCCCAGCAAAATCCTCAGGTCTGTCTACCATTCTCCTATAGCCTAGCTCAGCCCAAAATTTCTTAGTCCCTTTAAATCACATTCTACCTTGCTCCTCCCAACATTGCCCACTCTGGAATCCAGTATCCATTACTTTTCCTAGTCCAACTAAGCAGCCTTCATCCCCAGT
-1 GAAAGGTGTCACCCGGGCCATGTCCCAGCTGAGCCGGGTGCAGCCCAGGAAACCCCGCCGTACCAATGAGCACCAGGACGTGGCGAGGGCTGAGATGGGCAGGCCCTCCTGGGGCTGGGCGTGAGGCCCCTCAGACCCTTGGAGCCAGCTGCCCCGCAGGCACGCATGTCCAGCCCCGGGCAGAGTGGAGCCAAGCGAGG
-0.4372212396708767 TCCTGAATATGTTTAATTCTGTCTCCCGTAGCCATCAGCAAAGAGTGCAAGGCAGATAAGTCCAAAGAAAATAGCAGTTAACATCCAGTAGTGCCAAACCCACTTTTAGCCGAGAGGAACTTTACTGAGAGGGGCCTCCAACCCCATAAATCTTAGGAAGGGCTCTAACCTTCCTAAGTTGGGCCCCAAACAGGTTCAGT
-0.006825773192513724 AATAAAATACTGGCAAACCGAATCCAGCAGCACATCAAAAAGCTTATCCACCATGATCAAGTGGGCTTCATCCCTGGGATGCAAGGCTGGTTCAACATATGAAAATCAATAAACATAATCCAGCATATAAACAGAACCAAAGACAAAAACTATATAATTATCTCAATAGATGCAGAAAAGGCCTTTGACAAAATTCAAAA
-0.3251090707906164 GTTAGAGCTGAGAAACAGCAGAGGACACAGGCACGGCCAGCCTTGTTGAGTTTCTGTTCTGGAGAAGGCTGGTGAAGGAGTTACACATGAAGCAAAGAGACCAAAAATCTTCTCAGATATAAGAGGGGAACAGGTACCAACGAGAAAAAAATTCAGTCAGACAGGGGGACTGGAGCATGCCAAGACATTGGTTAGGGGAG
-0.1521683316854132 CTCTGCAGACACCTCAATTTTGTACTTTTTTTTTTTTTTTGGTGACGGGGTCTCGCTCTATTGCCCAGGCTGGAGTGCACTGGTGCGATCTTGGCTCACTGCAACCTCCACCTCCTGGGTTCAAGCGATTCTCCTGCCTCAGCCTCCCGAGTAGCTGGGATTACAGGCATGCACCGCCAGGCCCTGCTAATTTTTTGTAT
-0.01706948040233022 TGAATAATACTGCATGGTCCATACTGCATATATTTTATCTGGCAATACTAAATTTCAAGGGCTGAACACTAGGAACCAGTCCCAGTTAGAGAGATATGATAGCAGCTCTTATATAGTTTATGACTATCTGGAGAAAAACTAAATTCCAAGTCCCGAATTAATGTCCTGCAACAGGTCTGAACCACCTCGTTGTCCTTCTA
-0.5519315223548158 GTTGCTCCCCAGTCTCTTCTGTCCTCCTTCTTTGACCAACATTTCCCTGTCTGATTTGCTTGGTCACAGGTAGCCTGTGTCAGTTTCCTCCCAGGACTCTCTTTGCCTGGGAATAAGTGCTATACATGAGAAGCATCCCTCCCAAGCGCTGTGTGTGGCCTCCTGGCATTCTCCTAAGACTTCCTAGAGGATTGCTCTGG
-0.1196665013050382 GATTGCAACCCCTGCTTCTTTTTGCTTTCCATTTGCTTGTTAGATCTTCCTCCATCCCTTTATTTTGAGCCTATGTGTGTCTCTGCATGTGAGATGGGTTTCCTGAATACAGCACACTGATGGGTCTTGACTCTTTATCCAATTTGCCAGTCTATGTCTTTTAATTGGGGCATTTAGCCCATTTACATTTAAGGTTAATA
-0.5846221259991876 AAGCTAAGCCATGTAACTTAGAATTAGTCTTGGCCAAATGATCCACCTTGGACAATAAGAAGTACGCAAGAAGTAGCATTCTCAGGCAAAAGCCTTTCCGGCCAGTGTGTGACTCCTCTTTCCCTTATATTACGGTAACCAACCATGGTCTGGGGAGGAGCAGCTCCTTTGCCTGGTCAGTGAAAGAGGGTAACAAAGAG
-1 AGCCCCACTCCTTCTTGCCCGGGCCCCGCTGGCGGTGGTGGCTGGCCTGAGGCGACCACAGCGCTGGGCCTGGGAGGTCGATGTGATTCTCGGGTAGATTCTGAGCAGGGGTCCCAGGTGCAAGGGCGTTTGCCAGGCTCAGCTCCAGGGGCAGCAGGAGGACTAGGACTAGGGTCGGCAGGGAGGAGGCGGAGGGGCGC
-0.1755024035786402 GAATGGAGAGGAGGTAAATCACTTATTCCACAGTGTTGAGATTCTTCCGTCTTTCTTTCTTTCTTTTTTTTTTTTTTTCTTATTTCCCAGGCAAAATACCCTATGACTGAGAGAGAAGAACCTGAATCCTGGCATTCAAGAATATTCCTACAGTGGCCCAGCCTGGTCATGCCATGTAAGGCCTAGGCCAATGCATTGCC
-0.006869589954453969 TAACAAGATACATAAGTAAAAGACATAGTATTCTAGACTGTAATAATTTCTAACAAAACAAAATAAAACAGAGAAATGGATAAAGAGTGTGTAGGTTGATTTTGATACCATTTTACCCCAGCTGTAATGGCCATTACTAAAAAGTCAAAAAACAATAGATGTTGGTGTGGGATGTGGTGAAAACGGAGCGCTTATACACT
-1 GACCCTGGTCCTCTGCCTGTCTCACCTCCCTCTGGGCTGCACAGAGGCCGTTCCTTGCAGCAGATGATGCTCCCGTCCTGGGGCCTCCTGAGTGCCCACCGGGGTGTGGGGAAGGGAGGGCCAGGGCTGGGGAGGGCGGTGTCCTCACTTCTCTCTGCCTCTGGCTACCTCAGTGGACTTCAGATGGAGCAGGGCTCTGG
-0.198004213309523 TCATCACTGCTGTCTGTGTGGAAGAGAAGATCGAAGAGGGATTTACTGGACTGAATTGGCCTAGGAAGCCTTTGCTGGCATCTCTCAGACTGGACTGCAGCCCAGATCCTTTTACTCAGATGCATGCACTTAGAACATGAAAACAGTAAGATAAACGCCAGTGGTATTATTACCTTATATTGCAAGAACATTTTATGACT
-0.2124231915289949 AAGCAAAGGCTTGAGGATCCGAACAGGCTGCTGCATTTGGGGAAGTACAAACAGTTCAACGTGTATGTGTGTGTTTGTGTGTGTGTAGGCATTGAGGCACGTGAGTGCTGTATACACTATGGTAAGCAGTTGGGATTGTATTCAATAGGCCAGTGTTTCTCAAATTTAAATCCAAGAAACACCTGCATCAGGCTCTTTTA
-0.05622091402516993 TTTCAGAGAAATCCAAAACAAGCCCTCTTATTTATATTTGTAATTTATTGGTTACATAATATTTAATTAACCTACATGTGGAAGAAGAAAATCATAACAAATTTGGGAAGCAAACATATATGATTCTTGATAACCCATTGAAGACAGCTCCATCGTGCTAGTACCCTTGAAAGAAGGGTATCAGAGGTTTGGTCCCTAGT
-0.2918971430613679 GGGCTCAAGTGATCCTTCTGCCTCAGCCACCCAGAGTGCTGGGATTACAGGTGTGAGCCACCATGCACAGCTGTACCTCCTCTGTTGAAACCCCCAACCATTTCCCAATACTGCTGGTCCCTTATTAGGGGCCTTTATGGTAAACCATCTTTTTGTGTTGTGTTGTGACTACTCGTGTGGCCCTAAGCCAAATTAGGTGT
-0.2907424666350028 ACAAAACTAGTTATGATAATGCTCCCTATCTGCTAAAACCACTGTGAAGGTTAAATCAAATAATCCCTGACCGATGACAGACTGATAATAATCCCTGACCGCTGACAGACAGACTAAGAGAGAGGGAGCGAAAGAGAGAGAGAAAGAATGCTATGTGAAACAAAATCTGCAATACTAGCAAAAGAAGAAAAAACCTTTTA
-0.6737507045200369 TGAACATGGGCCAAGCTAATGGTGATGGCCCTGTTGAGTGTCACCCTTTCTCCTTTTACCTGCAGCAGTGTGGCTCTCCAGCGGGACTAGTGGAGGCCAGAGCCTCATAGCTCAGTCATTTATCAACAAACAGCTGATGAGTACCTTTGATGTGCTGGGTGCTGTGTGGGGATTTGGGGGACACAGGTTGACTTAGATGG
-0.4333876399168016 CTGAACAAATACCAGGCCCAAAGTATGAATTTTATTAGAGAAGTAATGGGGAACCACTGAAAAATTCTAAGTGTGACCCCACACGGCAGGGCTCTAGGACCATGAGCTGGCAGGGATGGCAGGCTAGTGGGATGGCATAGAGGGAGGCCCAGACCAAAAGTTGAAATACCTGATATGTGGCTCCACTCTACCATGGACTG
-0.2508436561329061 CATGTGATTCATTCTGTACCCCTGAAACAAATATGTACAGAACCCCAAAAGAGGAAGCTAAGGAGCCTGTGAGTTATTCTAAGGAATGTGCAACACCCCCTATTAAAAACTCCATCCTAAAACGGTGAAACCCCGTCTCTACTAAAAAAATACAAAAAATTAGCCGGGCGTAGTGGCGGGCGCCTGTAGTCCCAGCTACT
-0.520193348630055 CAGGCTGCCTGGAGTTTTGATTGTTGGGTCTAAGCTCACTAATGATGTGACCTTGGGTGATTACGTGGCCTCTCTGTGCCTCAATGCCTCATCTGCTGCACTGGGGCATTATTGGGTGGTTGTGGTAATGAGGTGAGGAACATAAAGTGTAGTGCATCGCACAATGTAGGCATAAACTTTGGTTTGATTGGACTGGATGC
-0.6740597111271454 CAACACCGGGCACCTATCAACCAGTTAAAAGCCACTAGCATGGCCGCCGGACTAAAGAAATGGGTGTCAGCCTTTCTGGGAAGGGCTCTCTAACAACCCCGGACTCTTCAGAGTTGGGAGTGTTGATTTTCCTGGAACCAGATTCCGCTTTTCCTGTACTTCTGGGCTGAACCAAGGGTCGACAGAGAAGAAAGCCATTC
-0.313615828400341 TTTGCTCTCCTTAAAAAGGAATCTTCTCTTAAACTTCTCTGACATCACACTATTTCTATTTCTCCGGCCACTCCTTGGTCTCATTTTGTTTTCTTCCTCTGACTGTCTCCAGGCTCTTTTCTCTCCTGAGCCTGCACCAGGTGATTTCATGTACTCTCATGGCTTCAAATGACCATCTGTATTTTGGTAATTCCTTTTCT
-0.09065059178788469 AAAAGTAATCTGTCCAATTCCAGTAAGCACAACTGTTTGTAATACAACTTTGCTTCTCCTCCCATCAACAGATGGAGTCTATTTTCTTCAGGCCTTGCATCTGGGCTTGGCTTGACTCCTTTGGCCAATGAGGCATTCAAAAATGTGATGCAAACGGCAACTTGAAAACTACCTAGGCAATTCACAGATTCATGAGAACT
-0.07942444927236851 GATCGCAGAAACTCGTCTGAATGATATCTTGCAGGCCTCTTTTCATTTACTGGCTGCTTTTTGTGTATGGGGGGAGTCCTAATGAAAATAAACATATGTAGATACTAATAATTTCCAAGCTAGAAAATAAATTGATCTAATCAGCAATCCATGTTCAGCAGATAATACAGGAAACTTTTTTCCTCTACAGAAAACCATGC
-0.2086625531267184 AAATCCCCACTGGGAACAAACTTAAAATGAAAAGATGTGAAAATGTATGCCTCTCTGAGAAAAGATGTTTCAGCTGCTTCCTGGAGTGACTTGGGTTAGAGAATGAGTTTGTAAGTGCGTGCTGACCCAGTTAATGTAGGAAGTATCAAACTCCAGGCACAAGTGACCTGAAAGAGAAGGAGTCCTCTTTTTAATAAACG
-0.8135301881311719 CTAGTTTTGCAAGCATGGTTTGGAATGTAGCCCTGAAGCCTCGCTGCTGGGTCTGTGTCCAGGCCTTGGTGCACACTCGTGTGTCCCTCAGCCTCTTCACCCTCTCCACCCTCCCCTCTCTGAAGTGGGCTTGCCAGGAACAAGGTCATGCTCATGCACACGTTGCTCTTAGGAAAGTACTTGCTACATGACAGATGCTC
-0.09613654663017369 TCAAGACCATCCTGGCCAACATGGTGAAACCCCATCTCTACTAAAAATACAAAAATAAGCCAGGTGTGGTGGCACACACCTGTAATCCCAGCTACTCGGGAGGCTGAGACGGGAGAATCCTTTGAACTCAGGAGGCGGAGGTTGTAGTGAGCCGAGATTGCGCCACTGCACTCCAGCCTGAGCAACAGTGAGACTCCATC
-0.05779491514149297 GTCACAGCAGCATGGATAGAGCTGGAGGCCATTATCCTAAGTGAAATAACTCTGAAACAGAAAATCAAATACCGCATGTGCTCACATATAAGTTGGAGATAATAATAGATACACATGGACATACAGAGAGAGATAGACACTAGAGACTGCAAAAGAGGGAGAGTTGAAAAGTTGTTATATATTGGGTACACTGTTCACTA
-0.0967074775555839 TGATTGGTAAAGCTAAAGAACAAAGAGACTTCCTATTTAATTTGGCAGTCTCAGCACACAGTCTTAACACATAAGTTTCATATCTCTTGAATTAAAAAGCTGGCATAAACCCCAGAATCATATTAGTGTCTTAAATTCATTCATGCCCGCTTCCAGACAATCCCCATCCCATCGTAGAAAACCAGTGTTTTGATTTCAAT
-0.7492815493325129 CCATGGGAGTGGGGCCAGGTTGGGGATGAGTTGGGGTGAGGAGAGGTGTGAAACCAAAAAGTGAACTCACTTTTTTTCCACTGAGCACAGACTAGGCTAGTCTGAGTGAGGCACAATACTTTCCCTGGACTTTCCACCAAACACCATAACCATAATGGGAAAAGGGAGAGTCTTCACAATGGCACTTGCCCCGGGATGTT
-1 GCTGGTGGAGTCCTGGGCCCCAAGGGGAGCCAGGCAAAGTGAGCCAGGTGGGCCAATTTCCTGGGAGCCTCACTCTTCTTCTCTGGGAAGCGGATTAGGAAATTCATCCCCGGGTGACCTTGAGAAAAAGGCAGGGCTCAGGCACACTTGGGAATAGCCTGTGTTCGGAGGGGGCCAGAGATGGGTAGGAGTTTTGTCTC
-0.006096977390654316 AAGGAAGATTTTGTTCCAATTACTGAAAAGATCCTCAACAACTGGAAATCATGGACTGGTGGCCCTGGTGCAGAACCATGACTGGCTACTGAATTCTGAAAACTAAGACTTGGTTCAACATTTAAATTTGATAGATGCCTTGATTCCCATTTTGTGTTTGTGAAACGCATATATATTTAATTTTGCTGTAAAACATAATC
-0.3202306245882633 TCACCAGAGTTGTGAGTGCAGTTATAGAAGGGAAGAGGACCAAGGACAGAGCCTCAATCATTAACTCCAATAGTAAGAAGTTGAGAGAAGAGAAAATAGCAAAGGAACTTGGGAAAGACTGGCCAATGAGATGCAAGGTAAACCCAGAGAATGGGGAAGGGCAGTGTCTCAGAAGCAAACAAACAATCTGAATTAAAGAG
-0.2095723752727838 CACAGATGAGTTATACTGCACCAACAGTTCTCAAATCGTAGTATGATCCAAACTTAGGAGGCAGACATACAGGCTCTGCCCCTCACAGATGCTGATTCAGTTGATCTGTGGCTTTCCTTTTTTTTGTTTAACAAGCATTCCAGTTGGTTCTGATGTAGGTTGTCTGTTGTTCATGCTTTGAAAAGCGTTCTCCTAGAAAG
-0.4705568537711477 GCTAAAAATGGACAGTTGGATGTTGAACCTAAATTCCAGAGGGCTGGGCAGAGAGGAGCTAAACAAATGGTAACTGTGGAAGGGAGGAAAGGAAGGGGGTAAGCAGCATTGCCCAAAGGGAGACCTCAGAGGCCCTGACCACCTGAGAACCTACTCAATAGTGGAGACACCAAAAAAAAATATTCATGTGGCACAGACCT
-0.977677776061483 CAAGTGGGCTCTGTGGGTGTGATAAGAGGGAGAGACAGACCCTCCCTGCCACCCAAGAGTCGTCTTTCCATTGGCAGGCTGTCCTATGACCTCCCTATCCTTTGCTCCTCTGCAAGATCTTTCCCTTTTTCCTTTCACCTGCTCCAGGCATAAGCATGAGCCTCCTCTCTACCTCCATAGGGGGAGGCTCAGGGAGTGAG
-0.2759409348429801 ACTGTCAGTAGTTCAGTAGTTATGGTTACCCAGAACTCTGTTCTCTGTTTTGTTGTTGTTGTTGTTGTTCAGAACGGAAAGATACTTGGTGTTCTATTTTAGCCCCTCCATGAGGCACTGATTTTGACCTGTGCCCAGGCTAAATCTCATTTAAAAGAGGAAACGCCCTCCAATTATTTCCTGTTTTAGGTGTTCACTGC
-0.9750416576210499 GCAAAGATGCTCACCCAGGTCTCAGGTTGCAGGTGGAGCTGTGTTGCAGTCAGAAGGGGAGGGACCTCCTCTACCCGGCTCCAGGTCTGGTTCTCGTGCACTGCTGCAGCAGTGCTGTCGTTGACAAAGCAAAGACACCTGCCCTGGTCCTCCGTGCAGCTGGCACGGAGTCACAGTCAGCAGAAGAGGAACACACACAC
-0.6944081589239404 TACGAGTCTGCAGTTGCGAACCCCAGAAACCCAAAGAACTGAAATTCAGTCCACAGACATCTATTAACCTGCTGGGTGACAGAGTAAGACTCTTAAAAAAAAAAAAAAAAGAACCTTACTGGATCAAGCCCCCAAGGGGACAAGTGACAAGTAACAGCCCTGATCGTCCGGGGAGTACCTGCTGCTTCTCCAGCCTTCCT
-0.2269701499773618 CCTGGAGCAGTTCACGGTTTAGTGAGAAGATGAGACGCCAGGCTCCAGAAGCGGGATACAAAGACAAGGTTGTGAGTTCAACTTGTAGTATAATTTTGCAACCCATGGAATTAAATGTGGGGCCTGATTTCTAGCTGTGTCTTCCTTGTGACTGCATGAGTAAGACATTTCTTTAGGGCATCATAGAAAAGCTATGATTT
-1 AATGCTCAGAGTGCGTGAGCTAAGCAGGCATGGCTACCTCCTCCTCGATTTAAAAGGATGCTTATGAGAGCCTTGGGGCGTAGGCAGAGAACTGTCACAGTGGCAGGGCTACCACAGATAGCCCCTACTAGGGCAATGCTTAGTGGGGGCAGGGCCACTCCTGAGACCCCCCAGCCTGTGCAGCCACCAGCATGCAATGC
-0.122656443310617 TGGCTTGATCTCGGCTCACCGCAACCTCCACCTCCAGGGTTCAAGCGATTCTCCTGCCTCAGCCTCCCAAGTAGCTGGGATGACAGGCGCCCACCACCACGCCTGGCTAATTTTTTGTATTTTTAGTAGAGACGGGGTTTCACCATGTTGGCCAGGCTGGTCTTGAACTCCTGACCTAAACTGATCCACCTGGCTCGGCC
-0.2149377690799752 ATAGTCCTAGCTACTAGGGAGGCTGAGGTGGGAGGATTCCTTGAGCATGGGAGGTCGAGGCTAAAGTGAGCCATGATCATGCCCCACTGCACTCCAGCCTGGGCGAAAGAGCGAGAAACTGTCTCAAAAAAAAAAAAAAAGACATTATCTTGGCAAGAATACAGAGAGAGTCTGGTATCTGTGGGTGAGAGTATATATTT
-0.2782688655144366 TGTGTGCGTAGCCAGAATATAGATGCTTACTGGAGACATAGGATTGGATAAAATCACTGAACAAGAAGATGTAAAGAAGAGAGCTTGGGGGCTTAGAACCTGAAGTACATGTCACCTGAAGCATATATAATGGAAGCAGAGCTTCCAACGTACAGAATCAAAGTAAACAATCAACCTAGAGACTGCTTTGTTTGGGAAAC
-0.6049107613460248 ATTGACAAGGTTGTTATACCAAGTGATTATGCCTTTCCTGTTGGGCCAGCTGCTTACATTGCTCCCAGATGGCTGCCCTGCCTTATGCATACCCTGGGCTCAGGCAGCTTCCTGACTTACGCCATGGTCTACAGAAGCAGCTGCCAGCAAAAGCCAGGCCTGAAAAGGGTTCCTTTACAGAGAAGAGTATCAGTAGGCCT
-1 GCGTGGGATGGTGAGGTGGGCGGCAGGTGCCAGGAGGGCGGGCTGGCCGCTCACCTTCTCCACTTGCTTCTGCAGGTTGCGGACACCGCTCTCGCGGCAGTACTGCTTGATGAGCAGCGTCAGCACGTCCGATGACAGCTTGGCCTTGCTCTCATCCAAGCCACACAGGGCGCGAGCCTGGGGCACCAGGTAGCGCTGCA
-0.06108582060180395 AGTGTATAGGCCATAATTTTCTGTTTCTTTTCACGTCTCTTATTTGTTGTTGCTGTTGTTGGAAAACGCTTGTTTTAGATATTGCATCGTAGCAATTCTAGGTACTGGCTACCTCACATCCAGGGCATATTACTGTTCTTTGCTTTATTACTGTTTTAGTAACTGGCTGAATTATTTTAGTAAAGTCTATGCCCCCTCTT
-0.6983256586504747 AAAATACAAAAAATTAGACAGGCGTGGTGGTGGGCGCCTGTAATCCCAGCCACTCTGGAGGCTGAGGCAGGAGAATCACCTGAACCTGGAAGGCAGAGGTTGCAGTGAGCCGAGATCCTGCCATTGCATTCCAGCCTGGGCAATAAGAGTGAAACTCCGTCTCTCTCTCTCTCCTCTCTCTCTCTCTCTCTCTCTCTCTC
-0.04780201536538204 AAAACAAAGATGATGTGATTGAGCGTTGTTTGCGAATATTGTCTTGAATTCTTACAGGGAACTGAACATATTTCAGGAGAGGGATATCTAGAAATCTAGCTGTGAGGATAAAATGTCAAGGGTATTGGGTTTATCAGAAGAGTGTGTTCAGATTTTTGTGCTTTGAAAAGGTAGTGTGAGTAGTCAGAGAGCAAGAACCA
-0.361499470554305 CAAAGATGGTGACAGTTTGGTGCAAAGATGGTGACAGTTGGGTAGATGGATGGAATTAGAGCTGGGGACCTAGGAATGCCTGCGTCCTTCCCTATAATCACCCCCCTTCCCCACAGGATTCCTGAGAGGGCTCATCCCAAATGGGAATCAAAGTGCCATTTTTACTAACAGACTCTAAAACTCAAAGACTTTGAGGTCTA
-0.3199228113738556 ATGTCCCTATTATCCCTATTGGATATGGGAACACACACTTTCAATCATCCATGGTTTTTATTTCTTCCATTTTTCCCCTCAAGGCAGGTAAAATAGGCATGTGAGTGGGGTCAGGGGCAAACATATTGTAGGCACCCCATAAATATTTGTTGGAAAGAAGTGGCTGCCTGAATCTTGGCTTCTCAGCATACACTTTGAGA
-1 AAAAGTTCTCCAAGCCCCCACCCCCTCAACTCTGGAGCCTAGCTGGCTTCCTCTAGTGGCTCACCTGCCAGGGCCGTGGGTGGAGCTGCCCACCAGTTCTGCGCTGCGCGACCACTGTTGTCAGCCCTTGGGCGGTCGATGGGACCGGGCGCTGCGGAGCAGGGGACGGCGCCCGTCGGGGAGGCTGGGGGCTCCGGCAT
-0.3218853396612076 CAAGCTTCTTGGTGGGTACTGTATGTTCCTTTAAAATTATTGCTCGCTGTAAAAGTGAGCACACGCACGCCAGGGTGTGCGTTAGGTAGCTTTTACAATGCTCTCTGGGTGTGCTAGGCCTCTGAGGCATGGAGCCAAATGTGAAGCTGCCATCATTCAACAGTATAAAATGCATACTGTGGTGTGTCATTGCAATTATT
-0.06098615238024226 TCCTGATACTGATGGTTGTATTATAATTATATAGGGGAATATTCTCCTTTAGATCAGATATACTCAAGTATGAGAGGATGACTGGGGACTGTTTGCAACTTACAGGGGGAAAAAATCTTTGTACTCTTTTTTCAACTTTTCTGTAAGATAGAAATTTAAACATTGTTTTTAAATCACCCAGGGTCTTATGGTACCTGAAA
-0.7696470330335472 CTGGGAGCTGTTATCAGGCACTAGCCACGGAGCACGCCTACTGTGTCCCGCACATCAGGCTAGGGGAAAAGCACAGACTGAGTCCCAACTTGAAATGGGCCAGTTAGGACAGAACCTAGGATCCTAGGTCCGAGGCAGGCCGCCGAATGTGTGGCTGGTTCTCATCTTTCCACTGCATTTGGAACCTGGATTGGTATGGC
-0.6951006793968391 TGTGGAGGGCTTACAAACTGTGCATGACAGCAGGGGAAAAGGCGGGTTCTTGAGTCCATGAGTTGTCCTGGAGGGTCCTTGCTGAGCTCTGCCATGAGGCACCTGGACTGCTCTGGGCTGGTGACTGCTGAAGGCTGACCAGCTCCCTCTGCTGATACTGGCCATAGTTGTCTGTGGCTGGAGTGATTAGTGATCTGGCC
-1 GGGACCAACTGGGCGGCTCCCAGGGTTCTGGAGCCAGAAGCAGAATGAGAGGCCGCATTTGCGGTGGTCTGGAGTACAGGATCTGGAGCTCTAATCCCAACTCTGCCGTTTTCTCCGTGTGACCTTGGCCCTGTGAGGCTTCACCTCTTGAGCCTGAGAAGCAGAGGTGACAGTACTGGCCCTGGTTCTTAGCAGGGGGG
-0.1586242977887154 CAATACTATCTAGAATATGAGGCTAAGCCTCCTGTGGTATCACATTTAACTGTAAATATTGGGAGGATTCTGGTGTGCAGAAGAGCATGAGCCTCCTGTTATTTCAAATGGGATTTGTATCTCCCTTACAAGAATTTTCCCTTTTTAGTATCCAGGCCTCTCCCACCTCAACCAATGTGTCTTCTTTTTGATGTTCTACT
-0.0444430947113754 ATGCTCTCAACTCACCAGTGTTATCACCTATAAACTCCATGAACTCTCATAGATGTGAGTTAAAATCTAGGCTCACCCACTTACCAGCTGGGGGACCCTGGATAATTTTTTTTCTTCCCTGAGCCACTATTCCTCAACTCTAATGTGGGATTAAAAATACCTACCTCTGTAGTATTATTATGAAGATTAAATAACAGAAT
-0.01577142799731224 AGCCAGGCACAGTGGTTCACGTCTGTAATCCCTGCATTTTGGGAGGCCAAGAAGGAAGGATTGCTTGAGCCCAGGAGTTCAAGACCAGCCTGGACAACAGAGTGAGTCCCTGTCTCTACAAAAAAATTTTTAAAAAATTAGCCAAGTGTGATGGCAGGCACCCACAGTCCCAGCTAATTTGGAGGCTAAGGTGGGAAGAT
-0.4969401857538577 ATCAGGATTATCAGGAAAGGGAGCCAGAGCATGAGGAAGGTGATGCTTGCTATTTGGGACTTGTTGCTTTGAGGTGGATGCATCTACCAGGCAATTGAGAGCAAGGGCTACCACAGAGGGTGGGGTGCTTGAGAATGCTATGATACCTGCCCATACTCTTCCTGTCCTTGGGTAGGGCAGAGAGGGCATTTTGTTTTGTT
-0.04452236153327077 TTGGCGATGCTATTAGTATATAGTCCCCTTTCGACACTTAAAAAATGCTCAGAAAGAGTGAAGATTTACTGCTAGAGGGGCTATGTTTTTAACTCTTTATACTCCAGACACAAGCTGCACTGCTATACAGTCAGCAGATGTTTTTTAGGAAAGGGCTAGATAGTAAATATCTTTTGGCCTTTCATATTATTTGATCTCAT
-0.06247567559908943 CACAAGTCCACTTTTAGAGTAACAAGGCCCTCAATGAGGGTGATAGCACCGATGATCAGAAAGGAAGACATGTTAATAAAAGAAGACTTGAGAAGATGTGGGAATTATCTTGAAATGGAGGAATTAGATGGACTACACATTTTCTAAATGAAATAGCTTAGTGATAGGCAAAGATTGGGACATCTGGAGAAAAAGTAATT
-0.3177698620521364 TATTAAGTCATGAGAATAAGGTCCTTATGAATGGGATTAGTGCCCTTATAAATGAGACCCCAGAGAGTCCCCTCACTGCTTCTACCCTGTGAGAACACAGAGAGAAGGCACCATCTATGCACCAGGAATTGGGCTGTCACCAGACGCTGAACCTTCCAGTCCCTTGAACTTGGATTTTCCAACCTCCAGAACTGTGAGAA
-0.1248910240718376 ATTATGTACCCAGTAGTCATTCAGGAGCAGGTTGTTCAGTTTCCATGCAGTTGAGTGGTTTTGAGTGAGTTTCTTAATCCTGAGTTCTAGTTTGATTGCACTGTGGTCTGAGAGACAGTTTGTTATAATTTCTGCTCTTTTGCATTTGCTGAGGAGAGCTTTACTTCCAACTAAGTGGTCAATTTTGGAATAAGTGTGAT
-0.1324170254195662 ATCTTTGACTTCCCAGTGCCTGAAAAATTAAAGCTAGACTCCGCAAGAGATATTCTGCTCAACCTTCTCTGACTCTGTCTCTGCATAATGTTAACTACTTCTATACCCCTAATTGCACTCTTAACTCTCAATATCATTTGCCTCTAGGTATTCATCTATGCACTTTTACTAAGTGGAAACCCTACCTCCCACATTGAACA
-0.3972800319849237 TGAAACCTTGAGTATCATTTCAAATATACACTTGGAAAGTCTAAGAACATATTATAAGAATAACTTTTGGGCTGGGCGCGGTGGCTCACGCCTGTAATCCCAGCACTTTGGGAGGCCGAGGCGGGCGGATCACGAGGTCAGGAGATCGAGACCATCCTGGCTAACACGGTGAAACCCCGTCTCTACTAAAAATACAAAAA
-0.1870567836267447 TACACTGCCACGTTTGCAAAGTTGTTTTGAAGGTGGAAGTGGGTGAAACTGTGTTCCTCTTTCTACTTTTAAAATATTTTGCCTTATTTTCTTAACGACTGCATTACTTTGATAAATGTGAACATTATGGGAAAAAGAGCCCCCTGTGCTGATGGCTGAAGTCCCTGGGTCCCATGGGGTAGATTCTGGGCTAATGCTTT
-0.08733932586480439 AAACAGAGATGGCTGGTTAATTTTTAGCCTCCACTCAGCTACGCCCAATTTACTGCCGCCTTTGAAACCTAAACGGGCGGCACTCTGTGATTAAGCAAGGCAGAAGTGTGTTTACATTATGCCCAACCAACTTGTAATGAGAGGGCTACCAAACCTTTCTCTCTCTCTCTCTCTCTCTGTGTGTGTGTGTGTGTGTGTGT
-0.08386202069035062 ATGCATGCTTTTAGAATTGAAGAATCATCTGTATGATTGCAGGCATAAGGAAAGGAGCTTGGTACAAAGTAGGAAATATATACATTTATGTATATATGTATATATTTTTTCATTAGAAAGGGAGGCAGGGAGGCAGGGAAGGGAAGGGAAGGGAAGGGGAGGGAAATATAGGGTAAAATATTTGTAGCATAGAAAACAAG
-0.1314656500426674 TCTCCAGGAATAATGATGCCTGGAGAGCATTGAAATAGCCTTGAATCCAGGAAACTAAGTGGGAAGAGGTAAGAGATTAGGCATATTTTAAAGGGTGCTAAAAGAGCATTACACAGGTACCACACTACTTTAGCAAGTGAGGTATCCAATGAGCCCTTTACTTTCTTTGTTTCTTTTTCTTTTTTTGAGACAGTCTTGCT
-1 TGGCCCCAGCTCCACCCCTCCCCTCATGTCCTCCATGGCCCCGGCCCCACCCCTGCCCCTCATATCCTCCATGGAACCAGCTCCACCCCCACAATGTCTTTGCAGCTCAGCAGCAGCACTGCTCTCCCAGCATTCGTGTCTGGGTGCTAGACATTTTGCCAAACTCTCTACCCCCTTTCCCAGATCAGGCCACACCTCCA
-0.1028986791313344 ATCTTGTGGATAGGAAAGTTCAGGTGGAAACAATGAAACGCTGTTTTAAACCCAGCAGATGAACGAAAGTTAAAGGGAGTCTCTGGTGTTGGGATGATGCTGGGAAATGGACATTGCTACTGGGAACCTGACTCACTTCCCATTCTTAGGAAAGTACTTCAAAAATAGTTATTAAAGGAAAAACATGCAAACCTCTGTCG
-0.005460602986430381 TCCTCCAGAGAATCTTTGTGCTTCAGAGAAGTCTTGGCTGTGAAAAAGAATTATTTGCAAAGACCTGATAGATTCCAACATTCTTAAAAATACAAACTAACTCATTGCTGAGTCATAACAAAGGGTTGAGTACAAGGTCTGTGGAGTCACAGAGACTGAGGTTCAAATCGCTGCTCCACTAGCTAATATTTGTGGGAACA
-0.3555999658483531 CAAGATTGTTCTGGAATGCTCTCTGAGTGATAAACATTGAGACCCCAGGAGCAGTGTTCTGGAATCCTATGTGAGGGACAAACATTCAGACAACAAAAGGAGTGTCCTGGAGTCCTATGTGAGGGACAAGCACTCAGAAGCCCACAGCAGTGTTATGGAATCCTATGTGAGGGACAAACATGCAGACCTCAGCAGCAGTG
-0.1798973015743786 CCTGGCTCACAGGAGTTCTGAACTTGCTCTAAAAAATTGGACTAGGAGTTCGAGACCAGCCGAGGCAACATAGTGAGACCCCCATCTCTACCAAAAAAAAAAAAATTAGTCAGGCATGGCGGCACACACCTGTAGTCCCAGCTACTCGGGAGGCTGAGATGGGAGGATCACCTGAGCCTAGGAGGTCAAGGTTGCAGTGA
-1 CTTTGCTTTGTGGGGCTCATGTCTATGATTGACCCTCCCCGGGCTGCTGTGCCAGATGCTGTGGGCAAGTGCCGAAGCGCAGGCATCAAGGTACTGGCCTCCCATCCTCCCCTCCATTCTAGCCTCCCCCATGCCAGAGTTCAAGGAGCTGCAGTGGCTGCTGCCCTGGAAAGGCCCAGGCCACGGTGGCCTCCTTCCCA
-0.3908440703080959 CAAATTATGAAAAATGAATAGGCAAGGAAATGCATCAATATCCAAGAGTCATGTAAGCAAGGGAGTGGGGGTGTGGGTGGGAATTGTGGCTCCTTAGGAGAGGGGTGACTATCACAGAGCACCTGCCACATAGAAATGAATATCACAGAGTGCCTGCCACATAGAGGTGAATATTACAATGCTTGCCACGTAGAGGTGAA
-0.1526295531632824 CACCAAAAAGAAAAACTTAAGCTGAAAGCTGAGTCATGCAAGAAGCTGCCTTTCCTTTTGTTCCTAAGCAGAGAGCTGCAGAGAAAAGGTTAAGCATCTCTACAGGTAGCTGCTCCATGTTCACCTTATCTTATGTAAAGTGTTGATTTACTGAGCACAAGACAATTACATAATTAGGACTATTCCCCTACCTGCTCCGT
-0.4119867666377623 GGCATGGGTGGGTGTGGGAATCACAGTCATTTCTGTGGTGTTAGGCTGGAGTAGAACAGTTAACTATCTAAAAGGTTTTGGTCTCTTTAGGCTGTCCTTCTCCTGGTCCTTGGGCTAGAAGGAACAGGCTTATGTAGGGATTTTTTTAAATTGCATTCACTGGCATTTCTGGGTTGCTGGCCTCTCCAGCTTTAAAGCGA
-0.4128135446626545 GGAATTTGGATGTGTATTCTCTGGATATTTTATACCTGAGGGTTTCTGGGCTCAGAACTACTAGGGCTAAAACCTGGGAAATGGGAATAAATTGCACACACAAAGTGAAACTGCACCTTCCTTCCCAACCCTGCTTCTAGAAAGCCAGCAGCCGTGCTTGCACTGCCCAGGCAGAAAACTGGGAGATCCTCCTTGGAAGA
-1 ATCCCTCACTCAGCTCTTCTGCTTCCCCAGCAGCTGTGGCCCAGGACTGGGAACATGGCTCTTCTTTGTGTGTGTGTGTGTGTGTGTGTGTGTGTGTGTGTGTGTGTGTGTGTGTGTGTGTTTTCTGAACACATTTACCCAGTAGCATTGTGCTGAGGCCAACTTCACAGAAGGTTTAAGACAACGGAGAGATGAAGCCT
-0.3113714071199732 ATAGAGGACAATCTGGTGATCGTCACTGCTCTGGTTTCCATTCAAAGTGATGGAGTTTTGGGGCAAAGTTATGGTGTGATTTGGTCCTGCATTAGCAACTGGTGGGTAGTCCACAGCATTGTTCACTATTAGGGCTGCAGTTGTAGAGTTAGTGGCTCCGTCCGAGTCTGTAACAGTCAACCTACAAAAAGGAGAAGAAG
-0.4282044877858903 CAGGATACAGGACAGGACAGAGAATGGGAGAGGATGGGTTTGGAGGGGAAAATGGAGAAAAAGTGATGTAGTCCTCTAGCTAAAGGCAATGCGCACTACCATTCTCCTCACTTTCTGAATATACAGCAGCAAGATGTCAAGGCAGAATAAAAAGGCACCCACTCAAATGGGTTACCATTTGGAATTTTGATCTCTAGTCT
-0.3903546909777435 TTGCTTGAACCCGGGAGGTGGAGGTTGCGGTGAGCAGATATCGTACCATTGCACTCCAACCAGGGTGACAGAGTGAGACTCCATCTCGGAAAAAAAAAAAAAAAAAGAAAAGAATATATACATTTTAGTATGTACCACTTAAAGATGACTGCAGCCTCAAACTCCTGGGCACAAGGGATCCTCCTGCCTTAGCCTCCTGA
-0.01104972910584034 GATCGCTTGAACCCAGGAGGTGGAGGTTGCAGTGAGCAAGATAGTGCCACTGCCAAGATAGTGTCATCCACCCTGGACGACAGAGTGGGACTCTGTCTTAAAAAAAAAAAAATGAAAATTTAACAGATTGGAGACGACTAAGAATATATGACAACTGGATTTGTTATCGCAGATCAAAAAAGGACATTCATAAAAAAAAA
-0.6358042891660236 AGCTCGGTGTGGCCAGTATAGCCTGTGAGCTGCAGAGACCATCAGCCATGGACTATCCAGGTTCAAGGCTCCTGCAAGCAACAAAGAAGGAGAATCTGGTACACGGGGTAGAGAGGAAGCTTCTAGCAGGCAGCTGGAGGTCCCGAGAGTCTCATCACAGCCGCAATGGACAAATCTCAAAACTGGGAATAACTAGGCAT
-0.03862911649666564 GAAATCCAAAAGATTTTCAGAAACAATTATAGACACCTCTGTGCATACAAACTAGAAAATCTGCGGGAAATTGATAAATTCCTGGAAACACACACATGCTCTCAAGATTGTATCAGGAAGAAATTGAAACCCTGAACACACCAATATTGATTTCTGAAATTGAATCAGTAATAAAGAAACCTACCAATCAAATTACCCTG
-0.2003885928313183 GGATTACAGGCATGAGCCACTGTGCCCGGCCATGACTAGCTAATTTTTTTCTAAATTAATTTTTGTAGAGATGGGGTCTCGCTATGTCACCCAGGCTGGTCTCCAATGATCTTCTCACCTCTGCCTCCCAAAGTGCTGGGATTATGGGTGGGAGCCACTGCACCCGGCCTGATGCAGCAATTTTTAAGAAACTTTTTCTT
-0.3958910227811754 ATTTAATGTTTGCCATAACCCATAAGGGTATAACTGTCTTGGCACATTCAGATCCCCCGTCCCCCTGCTGTCCTTCTAGTCAGTTTCTGGCACACTATGTTTATGAGCTTACAGAACAGCTCCTAGGTTTTCTTACTTCCAAAACAGTGGGCAAGAACAGCTACCTTTTAGAAGCAGGAAAAAGGAACATAATGAATAAA
-0.3457702602831253 GTGAATTTTTGGGCTCTATTTTTGACAGAGTCCTTTTTGCTAAGTTGGAGGCTGAGCTTGGCGAGGTGTGTTTTGAAAAGACCATTAGTCCGTTCTACCTTTCCTGAAGATTGAGGATGGTAAGGGTTATGAAGTTTCCACTGAATACCAAGAGCCTGAGAAACTGCTTGGGTGATTTGACTAATAAAGGCTGGTCCGTT
-0.0944598406940748 TTGAAGTACATTTGGGAAAAAGAAAACAAAACAAGCAAGCTACAGAGCAACTACTTAAAAGAACATTTTAAATCAATGTTCCAAACACGTAACTCTCTTAAAGTTTGTCACTGCAGGGCTAATTCTATTAAGTAACTGTTAATCCTGCACCCCTACATAGTGACCCGCCTTGGTTAGTCAGCAGTCATGTATTATTACCA
-0.513458056933518 AGTGTCCCTTCCAAAATTCAGGTGTGGCCAATGCAATAATATTAAAAGGGGTATCTTTAAGAGTTGATTAGGCCAAGATGGCCCCTGCCTCGTGAATGGAATTAAGGCCCTTATAAAAGAGGCTTCATGCAGCACTCAGCTCACTTGCCCTTTCGCCTTCTGCTGTTCCTCCCCTGCGGAGGATTCAGCAACCAGGCGCC
-0.1390339379702254 GTAGAGATTATGTGGTTTTACCATGTTGCCAAGATTGTTCTTGAAGTCCTGGGCTCCAGCTATCTGACCTCCTGGGCCTCCAAAGTGCTGAGATTACAGGTGTGAGCCACCACACTTGGCCCAGAGTTTTAATTTAAAAGTTAATTGCAGACATTATGCTCCTTACCTGTAAATACATTCACGTGTTTTTTGTTTGTTTG
-0.03425310267041765 TGAAACATTGTAGCAGGTCTGAAGAGCTATAACAAGGTGAGCAGTAGCCTTTGAGGAGTTAGGCTGCCATTGCTTTGTAAGAGAGGAAAAAATTATTTTTCCTTCTACCCTCCTAGGTTCTCTGCCTGGGACTTTGTAAATTAGACTAACAAAACAGATTGACAAAAGAAACCCAAACAATTTATTAATGTGTGAAGCAC
-0.277398156131464 ATACAGAGGGCCACGGGAAATAACACTGACACTGATCACAGGCAGCGAGAAAAGGGAACTGCAGTCAAGAGTTTTTATTATGATTTTTTTTTTTTTTGGAGGGAATGAACAAGGCAAGATAAGCAGGCTACATAAATTTAGGATTGGCTAGTTTGAACAAATTTAGAGGGCTCTTGCCTCTGTATAGGGGCTGTCCCTAT
-0.3941295642810412 CTCTTTTGTATGGAATGCTGTACAAACAGAACTTCCCAGAAGAAGAATGAAGAATTAGATACGTTTTGGGCACCATTCAACAGATGGCAAAACAAATCCTCCGTTCCATTCCCCTCAGCTAGCCACATTCTCCCCCTTCTGGATGTAATTTGTTAAACACTGAACTCAGCCCCGGTGAGGAGGTTATTACTGTTTCTATC
-0.04175212466036463 GGTCAGGGAACTGAATATTATCCTGGGAGCTATGGACAAAAAGCCAATATGGCTTGGAGTAACAGAAAGCAGAAAGGCAGGATTCTGGGATATCTCTGCTTGAGCAACTAGGTTGATGGTGTCATCTATTGAGCTATTGCTGTGTATTTTTCAAATGTATGGTATATGTTTCATGCATGTTATTTCTACCAGCACCACAA
-0.3398219128440161 AACGCCTGGGCGCAGTGGTTCATGCCTATAATGCCAGAACTTTGGGAGGCCAAGGCAGGAGGAATCACTTGAGCCCAGGAGTTGGAGACCAGCCTAAGCAACATAGTGAGACCTTGGCTCTACAAAAAATTTAAAAATTAGGTATGGTGGTGCACTCCTGTAGTCCCAGCTACTCGGGAGGCTGAGGTAGGAGGATCGCT
-0.0703240568828722 AGATCACGCAACTGCACACCAGCCTGGGCAACAGAGTGATATGCCTCAACAACAACAACAAAAAGGAGTGGTTGTATGAGATGGGGGCATCAGACAATGCTTATGATAAATATAATTCAAGGGATTCTAGGGGGAGAACTTTAGGGCTCCCTACCCAGCAGCTCTTTTCCATTTTTTCTTATAATATTTTGTAATTCTAT
-0.1680975928462669 TGTAATTTCTTCCAACTAGATAAATTTTATTAAATATATGAGAATAATTCCATATTCTAATTTTGAATTGTTTTAATTTTATCATGGTAAAAACACTTTTTATGAGCCGGGCATGGTGGTTCACGCCTGCAATCCCGGTACTTTGGGAGGCTGAGGGGGGCGGATCACGAGATCAGGAGATCGAGACCATCCTGGCTAAC
-0.1253623477018378 AAATCATTTTCTTAGATTAACTTGGAACTTCCTTTTATTGTTTAGCAGACAGGAGCTTGGAAATAATGAGAAGAAAGATTCAGCAAGAGTGAGAGTGGAAAATCAGCTTGTGGTTTTGAGCATATCATGTGAAAAGGACAGTATTCTAAAAAGACACAGAGGGAGAAATGAATTAGAAGCAAAAGCAGACAAATTCCATT
-0.1425184324720596 GTGACTTTGCTGCAGCTACAGATATCAAGAACTCCAGTGGGCCATGGTACTTCTTGGTCCATGGCCGAGGGATTATGCAAAAGCTACATCCATGCAGGAGATTTCCTTCATATTTGGATAGTTTCAAAGATAAGAGCATCTTATAATAAAGGGGAAAGAAACTTCAGAATGTCACAGGCAAAGTCTTAGGAAGTGAAGAT
-0.3072348239206164 TCAAATGGACAGGAATGGAATTGTCTCGAATGGAATGCAATGGACTCGAATGGAATGGACTGGAGTGGAATGGAAACAAATGAAATGGAAACGCATGGAATGGAATGGAATGAATTTTAAAAGATAGAATGGCATGGAATCGGATGCAACGGAATGGAATGGAATGGAGTCGAATGGAATAGAATCTATTGGAATGGCAT
-0.61434448991614 TCCTTACCCATCAAATGAACCCATCCCAGGCTTGTTCCCTACTACTCCAACAGGAAAGTCATGCAGTAAGTATGCTGTCCCCTCATGGCTCCTGCTAGAGCCTGTGCTCCACTCTGCCCCTGTGCCTTTGCTCATGAGATCACTGATCCCCTGCTTGAAATGTCTCCTCCCTGATCCAATTCCAAAGCCACCACTTGGGC
-0.1608440174211176 AGGAGTTAGCTAAGCAACTACAAGCCCAAATAGACAACCAAAATGATCCTGAGGTGGGACAACAAAGTTAATATGATTAACCACCTGCCGCTGATCAGCCTTATGTTCCCAAAGAGCCCTGAGTAGTGCTTTGGTGTTCACAGTCTGTTTTTTTGTTGTAACTTATATTTTTTAATGCTGATGTTAACTTTGTCAAACTC
-0.4499902578624803 GAAAGTCAAAGTGGAAAGAGATGTTTTTGTTGATTGTGGCCAAAATATCTGTCTTTTGCAAATAACACAAAATGTGAACACATCGTTAGGGCCCCAACAGGCCCTTGGAAGGCACAGGTGAGGGTCCCTGAGCTGAAGTTTCATTAACTGTGCAGTAAATCCAGCACTGCTCTTGGATCTACCCTCTCCTTATAAGGAAC
-1 GACAATGCGGGAGAAGGGTGATGCGCAGGGAGGAGGGGTCCGCAAAGCTGAGGTCCCCGCGCCGCCCGGCTACCCATCCGTGCCGCCCGCCCCTGAAGCCCCGCGCAGCCCCCGACCCTCCTCTGGGGCCCGCCCCACCGAGCGGCCGCAGGGGACGGGCCGCGCTCCGCACCCCGACCCCTCCTCAAATCACAAAACTT
-0.07778656938110705 TAGTGATACCAGATACGAGTTTCCGAAGTGAAGTGGTGAGCAATTGGTTGAATTTCATGGTACAGACTGTGTTGGAGAACTTTAGATGAGTAAGAACTGTGATAATCTAAGGAAGCTTTTTGGTTAAGACTCTAGACTTTGAAGGACGGCTGGCATTTGTAAAAGTAAAATAGTAGAAGAACAAGATGAGAGGAAGATGA
-0.375190511261713 TTCCTCTCTGGCATGGTGGCTCAAATTGATGCTAACTGGAACTTCCTGGTAAGGACTTTTTATTTTAAGTCTATTGCAGGAAGATGGGAGAAACCTGTATCCTATTCTGTTCTGAAATGCCAGAGTCCCAGTTCTGTTGCCCCTAATGGGAGAGAAGCGGTCCAACCACAGAGACTGCTGTGGTGCTGCGGTGGTGTGTG
-0.0935630803363493 TAAACAAACAGCTACTATTTCCTGAGCACTTCTCATGTGCCAGGCACTGCTCTAAGCACTTCACATATGCCAATGAATTCTCAAAACATTCCTGTGACACAGCTACTAGTATTATCCCTAATTTACAGATGAGGAAGCTGAGGCTGAGTCATAGGTTCAGAAACACACAGCTGGTGACCAGTGAATCCAGGATCTGTACC
-0.1645884594054494 CCAGCTACTCGGGAGGCTGAGGCAGGAGAATGGCGTGAACCCGGGAGATAGAGATTGCAGTGAGCCGAGATCACACCACTGCACTCCAGCCTGGGCAACAGAGCAAGACTCCGTCTCAAAAAAAAAAAAAAAAAATTGCGGTGGTCTCAACGATGTAAAATTAAAGGTAGTGATTCATTTTCACAAAGATTGACAAGAAA
-0.06942179539343853 TTGGTGTGTAATTGGAGGTGCTCAGCCGAATTTTTTTTCAATACTTGCTTTTTTCAATATTAAGTAATTTTCTAACTAATGCTTTTCTTCCATGCAATTTTCTCTCCTCTTCTGCTACGGAATGTTTTCATGGAGCTGATATTTCTCTGCGTTTTCTGTTTGTTTGCAATCTCTGATTTTTAAATTTTATTTGATCTCTG
-0.6152377757884059 CTAGCTCATTTCTGCTGATCTTTACAGGTTTGCTTAAGATCTGTGGGCCCCTCAAAATCCATGGTATCATGGACAAGGTCAGTCGGGTGGTTTGTTGCATGGTGACTGTGGAATTCGAGTTCAGGGAAGGGACCATCTGGCTGGGCTGCCAGCCGGGTCCTACACAGCCCCCTTTGTGTGGCCTTTTGGTCTCATGCACC
-0.02546023886095021 ACTGCACTCCAGCCTGGGCAACAGAGTGAGACTCCATCTCAAAATAAATAAATAAATAAGTAAAATGTAGCCAAGTTTTGAAAACCACTGCTTCTTCCCCTGCCTCAGGGATGGGCCTGTGAACCAAAGTGGGTCCATCAGAGTCCTTCCCTGGGGGAATTTGCTATAGACAGAAGATGGTCCCCTTTAAAGGCTGTGAG
-0.3424478987036387 CAGAGAACAGGGCCTCTCTCATCCATCTCCTCCATTAGGGCCTTTCTTCATATTTCATAGATAGACAGCTGGAGCCAGTTCTCTGCTTCCTGGGCCCTCTAAAAGGGCCAAAGACTTGGACAAATCCATTGTCCTGGGCACTCAGGAGGCAAGATTCTGTGTGTGCATGAGTGTACGAACATGTGTCATGTGAGAGAGTG
-0.1270675413924173 CTTCGGCCTCCCAAAGTGCTGGGATTACAGGCATGAGCCACTGCGCCCAGCCAAATATTCATCTTTAATTTTTCTTAGAATTAAAATACAGAAAGAGGGCCTACGACCCTAGTTCTTGACATATGGTTCTAGTCTCATTTTCAATAGCAAGGATGGGTCCCCTGGCCACATACTTCCAATTTGATCTTCTAAGCCTTTTT
-0.0424661865532921 GTGCCCACCACCATGGCTAGCTAATTTTTGTATTTTTAGTAGAGACACAGTTTCACCATGTTGGCCAGTCTAGTCTTGAACTCTTGATCTCAGGTGATCCGCCCGCCTCAGCCTCACAAAGTGTTGGGATCACTGGTATGAACCACTATACCCAGCCTCAACTTCCCCTGCCTTTCTGATTGTGGGTCTTAAGGCTTTCT
-0.1552546955884167 TTTGTTTTTCTTTCTTCCAGCACATTCTTGACAATGTGAAGGTCTGTGCACTCCAATTCAGGTAGAATACCCCAGTTCTGTCTCAGCAATGCTCTAGTCTCCTGTTGACACTATTGAGGTGCTTACAGTCTATCACCATAATGCCGGTGTGGTTCTGAGTCTCTTTGGCCAAAGCAGAATTTTGCAACATGTTCCTTGTG
-1 GACCGCGGCAGCTACTGTGCAGGGGAGAGTGGGGTGTTGACAGGCGGGTGGACGCCACGTCACCATCTCAGCCCTGGTGGGAACCCCGCCGGGCTCTTACAACATTGAGCTTTGGGTCTGTAGATGGGGAAGTGGGAAACCTACATTAAACAGCATGTTAGTGTCCTGCACAATATGCCACAAACGAGGGGACTTCAAAC
-0.5495838221183598 GTGCTTGGGAGTCATCGTTCCCATCCCAGAGATCTGGCTATCATTCATTCAATAAATATGTCTTCATCATCTAATAGGTGCTAGGCACTTCACATATATGAACTCATTTAATTCTTCTAACAACGGGATTTAGGGCCAGGCGCAGCGACTCATGCCTGTAATCCAAGCGCCTTGGGAGGCCGAGGCAGGCAGATCACGAG
-0.3975788486669252 GCACCAAACTCCTAGCTCTACAAGTATATTTATTTATTTATTTATTTATTCATCTATTTATTTACTTATTTATTTATTTATAAATATTGCTATTTATTGCCGAGTTGTGCACTTTGGGGTAGAGTGAGGGGCTCCCAGCAGCTCTAGCTGGGTCTCTCTTGCTTCCTCCCTGCTTACGCCTTTCCTTTTCTTGCTCCTTC
-0.1530091248426347 ACCATTTGCTTCCAAGAAGAGTTCTGTGCGCTTACATCTTACTCTTAGAAACACCATCTACTGTTGTAGCATTATGGATTTTTACCTCCTTCTGCTGTACTGGAATCAGCCTCCATGACCTACATGATAAACACATTGAAAAGCTTTAGCACAGAAAGATGTGAAAAGAAACCCAGGGCATCTAGTGAGAACGGGCCCAC
-0.2315578434138097 AGAACTGGATTTGGAGAGGTGGGGAAGAAGGAGGAATCTAGAGGTTTCTGACTTGAGAAACTCTGTATGATGTTGGACATAGATATTGAGACCTAGAATACAGAGAAGATGAAAAGATCACTTTTAATCTGTTGGCTTTTATTTGCCTTTAGATGTATACAGAAAACAGATGGAGATATGAGTCAGAAACTGGGTGGTTA
-0.4078443114593429 GTGAGCTGAGATCATGTTACTGCACTCCAGCCTGGGCAACAGAGCGAGACTCTGTTAAAAAAAAAAGTCTTTTGGGAGAAGAGAATTGATGCATAACACAAGCAAAGTGACCAAACCCAGGAAAAGCCAGCTGTAAAACCAGCCAGGGTGGGAGCCCAAGGCCATCCAGTAGATGAGAGCTGTCTAATGGTCTAATGCCC
-1 GTCTCCAGTGTCTACCTCCTTGGTCAGCGATGGTGCCACCAGATGCAGGGCACGGAAGGCTGTGCCGTGAGGAAGGACCAGCACCCCAGAGCTCTGGCTGGCATGCTTCCCAGGGGCAGCCCCTGTTCCTCCTCTTGCCCACCCTTGGAGACGGGCCATCACCTAAGAGGAGGGAGAGATGGAAGCTGGGGGAAGATGGG
-0.5446921322476478 AGGATCTGTCCACTGACAGATCACATACTTTTTTCAGCTGCCCAGCCAGAGCTGTGAATAAACACAGACTCTCCGAGAAGACTTGAGCTGCCGATGACAGAGGTCAGGGGTCTTGGTTCCATTCCAGGCTGTCAGCTAAGAAAGAGGATCTGCTGAAGAATTGGAGCCTGGGCATGAGCTCTTGCCATGGATGGAACTTT
-0.1751853717094589 ATGGTGGCGCGCACCTGTAGTCCCAGCTACTCAGGAGGCTGAGGCAGGAGAATCACTTGAGCCTGGGAGGTGGAGGCTACAGTGAGCTGAGATTGCGCCACAGCACTCCAGCCTGGTGACAGAACAAGACTCTGTCTCAAAATAATAATAATAATAATAATAATAATAATAACAATAATAATAATAATACAAAAAGTAAA
-0.3086139271107583 TTGGCACTCCCCCTGGAATTTTCTTTCACTTCCTGAGAATGCATCTAGTCTCAGCAGTTTTTCTTCAGCTTAAGTGTTTTCAGACCAGGCAACCGCATTAGTCCAAGAGTCTCAAGAAGTCCCCCTAGGGAACATGATTGATTGTGTTTTGTACTAAGCTCAAGTGATACACAAGCCTGTCTCCAAATGGATGACTGTCA
-0.285364849621517 TTACTTGCCTGCAGACAAGAATGAAGTACTGATACATACTAGAACATAGATGAGACTTGAAGACATTATGCTGAGAGAAGCCAGTCAGAAAAGACCACATATTATATGAAATATCCAGAATCTGCAAATCTAGAGAGACAGAAAATGGATTAGTGGTTGCTTAGAGCTGGGGGAGGGGATGGAGGGATTTACGGGAGATA
-0.3714580031260386 ATAGAGTTCAATGAAAGCTCCCCTCCACTATTATGCTAGTGTTTGGAAGGGCAGGCGACTTTGTGTGTGTGTGTGTGTGTGTGTGTGTGTGTGTGTGTGTGTGTGTGTAGGGGAGGGGATGTTTTCATGTGAGCTGTGGATAAACTGAACAAATTTAATTAAGGTCTAAACTGAAGTAGGATCCCATAGTCTAGGTAGGA
-0.07313952492112699 AGTGCATAGCCCTATTATTTATAATACCCCCCAAAATGGAAGAGACCCAAGTATCTACCCATAGACAAATGGATGAATAAATTGTTATATTTTCAGATAACATAATAGTCAGTGTTGGGAGATGAAGGTAGACTGGACTAGGATGATAATGGCAGAGAGGGGGATAAATGGATAGATTTGGCAGGTTTGTAGGCAGAGTT
-0.6675374764947056 TTCTCGCAGAGGGGGATTTGGCAGGGTCACAGGACAATAGTGGAGGGAAGGTCTGCAGATAAACAAGTGAACAAAGGTCTCTGGTTTTCCTAGGCAGAGGACCCTGCGGCCTTCCGCAGTGTTTGTGTCCCTGGGTACTTGAGATTAGGGAGTGGTGATGACTCTTAAGGAGCATGCTGCCTTCAAGCATCTGTTTAACA
-0.1464061991163519 TTGCTTCCTCTGTAGCCCCCATGTGGTGGCTGGTTTCCTCTTTAACACTGAGCCTTGAGATAGAGGAAGTACCCTCCTTCCTTCTTATTGCTGCTTCCAGACAAACTTCCCAACCTCCTAGTAATATAAACAAGCAAACATCTTGAATCTCTTGTTATCACACTATACCTTCTCTACATTTCTGTTTCTAGTCATCTACA
-0.05023585468309114 TTTGGCAGGTTGAGACAGGCAGATCACCTGAGATCAGGAGTTCGAGACCAGCCTGGCCAACATGGTGAAACCCAGTGTTGATGAAATAATCAAACTCTGTAAAATATTTTAAGAGATTAATTCTGAGGCACATGTGACTGACCATGGCCCGTGACACAGACCTCAGGAGGTCCTGAGAACATGTGCCCAAAGTGGTCGGG
-0.6311064935918476 TCAAGGGTGACATTTCCAGCCACAAGAGGGAAGCTAAGCATGAAAGAGAAGATGCGCCAAGAGAGGCAGCTCTGTTTGGGGCTCAGCCTGTGGATCTACTGTTCCTTGTGCCTCTGAATTCAGCCCACTCCCTCCCATAAAGTCAGCTCCTCACAGCTGAAAGGTGAAAACCAGCAAGGATTATGTGAGGCATTGGGTGG
-0.2372929113710241 AAGGCACCCCAGAACTCAGTAGCTTAAAACAACAATAATCTCTTCTAATGGTCACTGGTCTTCATATTAGCAAGGATAGCTCTGTAACACATGCCTCCTTCTGATGCCTAAGTTGGAGGGGCAGTGACTACTTAAGCATGCTTTTGTCATAGCAGAGATCAAAAGCTCCCAGAGGTGCAAAGAGAAACTTCTGAGGCCTC
-0.6565810723982017 TCAATATGTTGCCCAGGCTGGTCTCAAACTCCTGGCCTCACCTCGAGCAATCCTTCCACCTCTGCACACCGAAGTGCTGAGATTTCAAGTATGAGCCGCTGCCTCCTGCCCACTTAGCCCTTTCTAACACTAGAGAACTTTGAGAGTGGTTTCAATACCAACTGGACACTTCCCAGCGGTTTAACCTCAGGCAAATCAAA
-0.07040026499664258 TTCCATTAATGAAGGAATAACTCTCACGACCTAATCACCTTCCAAAGGCTCCACCTCCTAATATCATCACGTTGGTGATTAAGATTTCAACACATGAATTTTGGAGGGACACAAACATTCAGACCTTAGCAGATTCATTATAAACTGATTTTTTAACAGTGACTGTTTTGAGAAAAGCAGAGCAGGTACCTATTCTCATT
-0.1413609358283188 TCCTACGATTCTTGAATTCAATTTACCTATGGTGGAATTCCCTTTTTCCTCTCATTAATTGTGTACTTATGCCCTTTTTTGTCATTGTCGGTAAAAAGAGCTCTGTAAGTCTTTTCAAAGACCCAGAGATATTTCTGCTGTTTGTGTTCTTGATGCTTGCCCTCATTTCTTCGTACCTATTTCAGTATTTTCTGCTCTTG
-0.2359431334022994 TCCTATCACAGTGCCAGGGACACACAGGCCCCATAATCCTTCATGGCCAATTGAACTGACAGTGAACTATGTCTTCGTCCATTTGGGATGCTACAACAAAATACCATAGACCGGGTGACTTATAAACCACAGAAATGTGTTTCTTATCGTTCTGGAGGCTGGGAAGTCCAAGATCATGGCATTGGCAGATTCAGTGTCTG
-0.1628240391959977 CACAGCAGCATGTATGTTAATACCTGCATTATCAAAGGAGGAAACTGAAGATTTGGAATGGTGAAGTACATTGGCTAGGGTCCAGCTCATCCGCAAGAAGACAAAACTCCAGTGAGTTTTGAGTCAGGTTATCTCCTAAGTCCGTGTTTCCACCATTATAGCACATATGATCTTTGAGAAAATGGATAGGAGAAAGGCAC
-1 CCCGCTCTACATTTTAGGAAAGATGTGCTGGTGACTGAGCGGCGGAGGGAGAGGAGGCTGGAGACAGAGGGCAACTGGTGGCAGCTCTAGTAGTCCTGGCAGGAATTGGCAAAGACCTGAATGAAGGCAGCAGCGGTGGGCAAGGGGCAGAGACGCACAGGAGGAAGCTATTTCAGGATACATCTATAGGACTTGGTGAC
-0.04893095955089066 ACATGTGAATGAGTATCTCAAAAGAGAACACATAGGTCAGGCGCAGTGGTTTAGGCCTGTAATCCCAGCACTTTGGGAGGCTGCGGCGGGTGGATCACCTGAGGTCAGCAGTTTGAGACCAGCCTGGCCAACATAATGAAACCTCATTTATACTAAAAATACAAAAATTAGCCGGGCATGGTGGTGGGCACCTGTAATTC
-0.2375772837675514 CTTTCAGGGGGCAGTATAGGAAATGTGAGGGTGGGTGGTCAGTTTAATATTATAACCCAGGTTTTAAGTAGAGAGGCTGTATAGTTTGGAACATTGCCATATAGTCTTTTTTTTTGAATTTTTGAGACAGAGTCTCCCTCTGTTGCCCAGGCTAGTGTGCAGTGGTGTGCTTTCTGCTCACTGCAGCCTCCACCTCCCAG
-0.05262452189974599 AAGGTCATTATAAGAATTTGGACTGTATAATGCCTATCTGGATAATGGACCCACAGAATCAAGGTCCTGAGACACACATCACAAGTAAAGATGATGAACCCGTTATTGAATTAGAAAACTAGGAAAGGGTGGAACGGAGAGTGGTAGGTAGAAAGGGATGAAGAGAGACAATTTGGATGAATTACAAGATGGTTGATTAG
-0.1534198671416144 CACTGCACGCCAGCCTGGTGACAGATCGAGACTCACATCTCAAAAAAAAAAAAAAAAAAAAGAGGACAAAAACACAACTACTTTTGCACCAACCTAGTGTAAGTGTGTCCCAAATATTGTATGGGACATACTTACAGTGAAAAAAAAAAAAAAACCCAGCATTTGTTGATTATCTGAAATTTAAATTTAACTGACTGAAT
-0.6193844489694198 AGTACTTCCGGGCTGAGCCGAGGGTCGACAGAGAGGAAAGCCATTCAGCACCTGGTTACCGACAAAAAGTTGGTTGACCCTGCAGCCATGAGCAGAACTCTCAAAGTCACATTGCCCAAGCGAGACTCACCCATCTATCCTATCTATCCTGAGCCTTGCCTCCTGGGTCCTAACACCTGTCAGACAAACTTCCTCCTGCC
-0.3119583555055682 AAAATAGGCTGGGCGAGGTGGCTCACTCCTGTAATCCCAGCACTTTGGGAGGCCAAGACGGGCAGATCATGAGATCAGGAGTTCGAGACCAGCCTGGCCAATATGGTGAAACGCCGTTTCTACTAAAAGTGCAAAAATTAGCTGGGCGTGGTGGCGGGTGCCTGTAGTCCCAGCTACTTGGGAGGCTGAGGCAGAAGACT
-0.9453945818476905 TTAATGAATATCCATAATCATTCAACTCAACACTACTATGATAGAGTGGCTAAGAGTGCTGGCCTTCCGTCAGTGTGGGAAAGGGGTAGGGCTGGGGTTTGCAGCCCCGATATTATGACACCCAGTGTGGTGGCAGCCCCGTGCAGGGAAGCAGAGCCAGAGCAGGGTGAGGAGGGTGTTCGTGCAGGGAAGAGGCAGGA
-0.6300142338631995 ACTTCACTGACGTGCAAAATAAAGGCTAGGCATGCTAACAGAGCTAAAGGTTTCCATCTTAAAGTCCTCGCTGTTCCCCACACGATGATGATGACAGTTGCATGTGTGGGGAGCGACAAACACGCTTTGCCAGGCCCACCAGATGGGCTTGGAAGCCAAGTCAGAGAGAGGCATTTCACTCTCCACATGTAATCGGCATT
-0.2237448335471598 GGAGCCTGGGGAGACAGACCAGAGAGGGCTGTGAGATGCATTTTTGGAACTGCAGTGGAAGGGAATGGGACTCTCTGGAGTCCAGTGTCAACAACCCATGCACTCGCATGCACACATACTGTAGAAATAAAGGTGCTGTGGACTTATACATGCAAATACACCTACACACATAAAACATATATATTTCCCAAATACTTTTT
-0.5843660494375361 ACCATGTTGGCCAGGCTGCCCGCTTCGGCCTCCCAAAGTGCTGGGATTACAGGCGTGAGCCACCACGCCCGGCTTCCCAGCAGTATTTAGTCTGACCTCAATCTAGTGCTCTGATAACTCTTCCACCATCACTGCCTTTCTGCAGCTTAGCATTCAGCCTTTAACTATTCCCCCAGCAATACCCCGCTGACCTGAAGCCT
-0.04708020952176097 TCATTTTCAACAAAGGCACCAAGAATATACACAAGAGAAGGACGCTATCTTTAACAAATGGTGCTGGGAACCTGGATAGCCATAGCCAGCAGAACAAAACTAGATCCCTATCTCTCACTGTATACAAATATCAACTCATAATGAATTAAAGACTTAAATGTACGACCTTAAACTATGAAACTACCAGAAGAAAATATTGG
-0.1158203943110837 TAAGTGAAATAAGCCAGTTGCAGAAGGACAGAAACTGTATGATTTAACTTATGTGATATATGTAAAGGTGTCAAACTCATAGTAGTACAGAGTGGAATGTTGTTTGCCAGGGGCTGGGAGGAATGGAGAATGGAGAGTTGCTGTTCAAAGGATATAAAATTTCCTTCAAGCAGGATGAAAATGTTCTAGAAATCTATTCT
-0.7336044015086604 AAGGTCACACATCCCACAGGGGCAAAACTAGGACCAGACCTCCAGCTCCTGATTCCAGCCGTGGATGCCCCATGTGTCCCTCTCCCCCATGTCACAGAAGCTGTGTGTTCCTCCTGAACACATGATTCAAGAAGTTATTTAAAGAGCCCACAGTGGGCCAAGCGACCTCTTCCTCATCCACCTTTAATAGGCGAGTGGTA
-0.1072007940068345 CCCAGCCTACTATTATTCTTTGAACAGGTATTGATTGGGGGCCTGTTAAGTGTATATTTAGACCATCTCTTTCACCAACCAAATTAGTCTAGAGCCACTCACAGATTTCATCATGTGTTCGTATATTTGACAATGCCATTGTGATAGCCTTAGCAATGCAGTGCATGGCTTCTCTTGTTAAAAACAAAGGGATCTGGCTG
-1 ATCATTGACTCAGACTGTGAAGGGGCCTCTCTCCACAGCTCCTGCACCCCCAGGGCCTGGCGGTGGCCTGGCTGCTGTGCACTGAAGAGGCAGTGCTGCCTTCACCTGTCCGAGGGACGGAGCACGTGGACGTGTCAGCTGCATCATCTGCTGTCCCTCCCGGCATCACCTGCACTTTATCCTCTAAGGGGTTAATTTTA
-1 ATCATCATCTCTAAAGTGGGGATGAAGCGGAGCCTACCTTCCTGGGGTTGCACGGGGAAGAGCGTGGTCAGCACAGTCCCAGGCACACCACAAGTGCCCAGCAAACGGTGTTGTTTTCCCTGAGCCCCTCGTGACCATGGGCAGCCCCTCATGCCCCTGAGGCCAGGCCTTTCCCAGTTCCCTTTGCATTTCCTAGTTCC
-1 GCCTGGTTCCAGCAGCCGTTCCTGCCCTGGGGCCTTGGCTCTGTCCTTCACTCGAGTGAGTGCCAGCCGGCGTGCTCCCTGGGGGGACCCACGTATCACCACAGGGACCTGCTGGGTCGGCTTCCCGGGGGGACAGGGCAACGCTGCCCCAGGGGCTTGAGGGGCATGGAAGCCCCCCCAACCTCATCTCTCCAAGGAGT
-0.3184569540271155 AGTATCCTAAGAAAGGTGGAGTCAGCCACAGTAAGCTCTGATCACCAGAGGGTGGAGTGATTCTGATGTCAGTTTCTATGTGGGTCATGAGGAAGTGTCCTGTCTCAGCCATTCCCTGGACTCTGGCCTGAGTCCTAGAAAAGCTGGGGAGGGGTGAGTGGGCTGAATGTAAGAGCTCTTCCACTAAAGAATCTGTATGT
-0.05323806398640533 TGTATGAACTCATTAAATCTTTACCTCAACCATATGAAGTAGGTGCTGTTATCATCTCCATTTTACAGGTAAGGAAACAGGCACAGACTGATATGTGGATTTTGCTGTCTCTAAGTTTATATAAATAAAGCAGCATTCTTGGGGATGGATGTTTTCTCTCAAGAGGATGCCAGTCCAGTCAAGCTCTGCCTAAATTGGGG
-0.1280858416118499 TTTTCTCATAATGGACTTCAGTATTAAGTACATTATGAACTTTTACTTTATTCTCTTGCTGAGTACTTGGAGTCACACTTCCCAAGGGTGGGAGGGAGACTGCAAAACATTTTCGTTGATTAGTTTTATCTTCCACACAGCAAACTGTCATCAGGAGCTTAAATAGGACAGATTTTCACGGCAGTGGATATACCAGGTAT
-0.9387922554961077 TTCTTGTCCTGCTGGGGGACTCAGGTCCCTCACTGAACCTACATAAGCCTCCATGTCCTGCCAAGGCAATGAGGACAAGAGCACCTCCCCACCAGCTCGGAGACACTGGGTGGAAGAAAGGAGTCACTGCCTGAAGATACTTTGCAAACCACCCCCACCTTATATTAATAGAAATGGAGACCGGTGGGGCTACTACATTG
-1 ATGGTCTGGTAAATCAGTGCCCTGGGAAGCTTTAGATTGGGGGACTGGTTTAGACACCCCAACAAATCAGTTCCCTGCACCTGCTGTCTCACCAAGCAGCACCCGTCTCCCGGCCAAGTTGCTCTCACTTGCAGCAGAAGCCACAGCCAGCTCGGAGGGGCAGGTGAAGGGTGGAAGAGCTGGCAGCCTTCCCCACAGCC
-0.9738956513524479 TATATATACACATAAACATTATCTCAACTGTTCCTACAGTTACCTAGAGAGATGGCCGGGAAATCCCACTGAACAAAGGAGACATCCGAGGCTTGGCAAAGTTCCACGGTTTGTCCCTGTCCCCCCTCCTCCACTTCCGAGACGACCACAGCAAGGCTGGAGCTGGCTCTCAGACCGCAAGCGCTGGGTTCTCTCTGCCA
-0.01217674639214165 TACATTTTTAAGCCAGGCATGGTGGCTTGGGCCTGGGATCCCAGCACTTTGGGAGGCTGAGACAAGAGGATTGCTTGAGCCCAGGAGTTTGTGTCGAGGCTGCAGTTAGCCACCACACTTCAGCCTCGGTGACAGAGCAAGAAACAATCTCTTTTAAAAAAAAAAAAAAAGAAAAAAAAGTATATATATATATATCCCAT
-0.192482008987026 AGAAGACATTTATGTAGCCAACAGACACATGAAAAAATGCCCATCATCACTGGTCATCAGAGAAATGCGGATCAAAACCACAATGAGATACCATCTCACACCAGTTAGAATGGCGATCATTAAAAAGTCAGGAAACATCAGGTGCTGGAGAGGATGTGGAGAAATAACACTTTTACACTGTTGGTGGGAGTGTAAACTAG
-0.3521444354227108 ACTTTGTTTTGTATCCTTTGACGAGCATCTCCCATTTCTCCCTCCTCCAGCCCCTGGCAACCACCATTCTATTCTGTTTCCATGAGCTCCACTTTTCTGGATTCCACAAGTAAGTGAGATCATGCAGAATTTGTCTTTCTATATCTGGCTTATTTCACTTAGCTCCGTGTCCTCTGATTCATCCATATTGTCACAGTCTC
-0.5663796775799957 GGTGAGGCAGTTTTATAGTATTTGGATAGGTAGTGGAAAATTACAGTCAAAGGGGGTTGTTCTCTGGCGGACAAGGGCAGGGGTCACAAGGTGCTTGGTGGGGGAGCTTCTGAGACTCATTGACTGGGAGAAGGAATTTCACAAGGTAATGTCATCAGTTAAGGCAGGAACTGGCCATTTTCACTTCTTTTGTGGTTCTT
-0.06994303244125367 AGATTTATTAATACTTTCACCACACAGGAGAAAATTGAAGCACAAATTGGCTAAGTAACAAGATCACACAGTGAGTAAGTCAAATCTGGCGTTCTAGGCTGGGTGTAGTTGTAACTGTAATCCCAACAATTTGGGAGGCTGAGGTGGGAGGATTGCTTGAGGCCAGGAGTTCGAGATCAGCATGGGTAACACAGTGAGAC
-0.2028990822784814 GGTAGAATGCTTTATATTCCGGGGGATACACCCAGTAATAGGATTGCTGGATCAGCTGCTTTTAGCTCTTTGAGGAATCACCATACTGCTTTCCACAATGGTTGAACTAATTTACACTCCCACCAACAGTGTATAAGCGTTCCCTTTTCTCTGGAACCTTTCCAGCATCTGTTATTTTTGGCTTTTTAATAGCCATTCTG
-0.4981777205916892 TTTCAAACTCCTGACCTCAAGTGATCCACCAGCCTCCTAAAGTGCTGGGATTACAGACGTGTGAGGGGTCTAGAAATGACCCTTCTTGGACTCTCAGCCCCCAGGTTTTAGTGGGAGCCTGGATTTTAGCTTCCAGAGCCTGGAAGAACTTTACTAACCAGGTCTAGGCCTGAACCTTGGCTTTATTCACCTTGTGACTT
-0.136035917863059 GGAAAGTCCAGTTGTTTCCCAAAGTCCTACAAGTTGTCAGTACTCAACTTCAAATATCTACGTCTTGTTGGGATTAGTTTGAGGCTTTTTGTGTCTGTGGAGGGGTGCAGAGTAGGTCTTATTCTAGAGCACGGTTTTTACTTCTAGGATCTACTTTTCTAATATATCAGATATCTGAAGGGATGTTAATAGGACATTAA
-1 CACCCGGGGGAGGCGCAGGGGCATGCGTCCTTCCACCCCCTCCCGTCTCCTGCCCTACCCACCCCTTCCCATGCCCCTCCAGTCTCCCTCGAGACGCCCCCTCTCAGCCCCCAGGGCCCTCCCCTGTACCCTGTGGCCTGTGCCTCTCTGAGTGGAGAGCTGAGTGAGCCCTGGGAACAGGGCTGACACCTGCCACCCCC
-0.09427376821070235 ACCCTGGATTTGGTAATTTGATGTTTTGCTGAAGGCTACGACTTAAAAAAGCCTCCACCTCATACAGAAGACCTGTCATCTTGGTACCCAAGAGCCAACAGAATAAAGAAGTACCCTTAAGCAGCAAAACTTTGACACAGCTTTGAAGCATATGAAAACAGTATAACTCCTCAGAATTATTATTACTCAAGATCAAAGAA
-0.2721475987327486 GGGCAGGGAGACCCTATCTTGACTAATGAAACCACGTAAAATGTGCCCAAGAAGCACTTGGTAATGAAATAATTGATTAACCATCACATTCTTTTAGAACTCTGCAAGCAGTGTGCTCTCAAATGCCTTGTTTTTTTGCTTTGGAGCCATTGGAAACTTTTCTTATCTTTCCTTCAAACCTTGGAAGACTCAAGTTCCCT
-0.44267821873886 GGCTTGTGGGAAATGGGACTGGCCTGGGGTTCTCAAGAGTGGGCTGAGCTACCTCTCCAGTAGTGCTCTCGAAAGTGGCTATTGTTTCTGAACTGAGAGCTCTGCAATGAGCAGACACTGCATGGACTGTTCTTCTGAAGATTTAATTCCACATATATAGACATTGCCCAAGAAGGCTCTTCCTTTAGCATGGTTTGTAT
-0.2876626059917766 GGTCATAAGGATGGGGTGCTGGACAAAAGGACTAGTGATCTTACAAGAAGAAGAAGAGGCACCAGAGACATCTCTCACTTTCCACTGTGACACAGAAAGAGAAGGACTCATGAGGACATGGAAAGACTGGGAGGCTGAGGCAGGCAGATCACTTGAGGTCAGGAGTTCGAGACCAGCCTGACTAACATGGTGAAACCCCG
-0.06157092881214838 TTCCTTCATTGCTACAACTAACCATAGTCTGTGATCTCAGATTTGAGGTTCCTACTAACCATTAAAATTAAGTAAGCTTCTTTTAAAAGTATCATCATCATTACTATTTGCAATATGCCGAGAATTGTGCTAAGCTTTGAGCAGGAATAAAAAAAGTTTTCCCCCCAGGACCTTCACTAAAGGAACTGACAGTGTTACTA
-0.1919772377846421 TTCAGTATAGACACCATGAGTCAGAGATAAATTTTCTGCACACTTAATGCTGGGCAGATTGAGGGGTGGGACATTGTGGGTATGGAAGTCCCATTCATTACCATCTGCTTGGAGTTCTTTGAGTTCTGAGATATTGCTGATAATCTCAGCACTGTATATTTGTGTCTGATTTTCTGTGCAGGGAGGAGTAAAGCCAACTG
-0.3895823074223714 AGCACTTTGGGAGGCCAAGGCGGGCGGATTGCTTGACCCCAGGAGTTCAAGACCAGCTTGGGCAACATGACAAAATCTAATCTCTACAAAAAAGAAAAAAAAAACAAAAGCTAGACGTTGTGGTGCATGCTACTTGGGAGGTTGAGGTAAGAGTATCAATTGAGTCTGCACAATCGAGGCTGCAGTGAGCTGAGATCACA
-0.6563936112357471 AGCCACCATTGTGATTCTGGGGTCCACAGTGTAAGGAAGCCTCACAGTTGCATGCTCAAGGCCTCAAGTCAGGAAGCATGACTGCCGCATTTTCCAGCAGTGAGTTGCTGGCGGGGTCACTAAGCCTTCCTGGGCCACGGTTTCTTCCTTTGAAAACTGGGATAACAATCATATCAGTGAGGAGAGGGGTCCCTATTCAT
-0.3389345293449048 GAGCCACTGCACCTAGCCCAAAATTCTTTTTCTTATTTTTATTTTTGGAGACAGAGTCTCCCTCTGTCACCCAGGCTGGAATGCAGTGACACGGTCTCGGCTCATTGCACAACCTCCGCCTCCAGGTTCAAGCGATTCCCCTGTCTCAGCCACCCACGTAGCTGGGATTACAGGCGTGCGCCACCATGCCCAGCTAATTT
-0.4743367757194796 AAAAAAAAGAGAGAGAGAGAAAGAAAGAAAAGAAAAAGAAGAAGTAGCTGGCTCAGGTTCAAACTCCAGAGTTGGAGCCAGGGTTCACAGCCAGGCTGATTCCTAAGTTCCGTACTCTGCCCTGCTGCACTGCCTCCCCTAACCAAAGTAGCAAGCAAAGATTTCTTAAAGAAGGAGACCAGCGTCAGCTTGAGTTATGC
-0.122100391666366 CACTAGGTCACAGCCAGATAGAATCTGGGATTGTAGGGAAAAATACCCACACTTAAATGCCCCCAAACCTGGTGAGAAAGTAAATATAAGAAGTCGTGCATCTTCCCCTGATACTCATCTCCCAAAGTCTGAAGTGCCCAGAACCAACTTTATAAATATTAAAATATTATTTTTAAAAAGATGTAATTGGGATGTAGGGA
-0.05686309993120472 CATTTATCTTCAGACTTCAGGCAATAAACATGCAATACAAAATCACTGGAGATAATGAGGACAATTCTTACAGAAAAGTTTGATAAAGAGTAGAGAATTTGGCTTTGCATCTGTCCTCCCAGAATTTGGAAATTGATGGAAATAGGGCGGTAGAGGAAATGAAACAGCAGCTTCAAATGCCATGTAAGCCTAACAGGTAA
-0.1680235737739799 AGTAACCCAAACAGCATGGTACTGGTACCAAAACAGAGATATAGATCAATGGAACAGAACAGAGCCCTCAGAAATAACGCTGCATACCTACAACTATCTGATCTTTGACAAACCTGAGAAAAACAAGCAATGGGGAAAGGATTCCCTATTTAATAAATGGTGCTGGGAAAACTGGCTAGCCATATGTAGAAAGCTGAAAC
-0.3052915473309705 TCTTGTTGCCCAGGATGGAGTGCAGTGGCGCAAATTCGGCTCGCTGCAACCTCCGCTTCCTGGCTTCAAGCAATTTTCCTGCCTCAGCCTCTCAAGTAGCTGGGATTACAGGCATGCGCCATCACACCCAGCTAATTTTTGTAGTTTTAGTAGAGATAGGGTTTTGCCGTGTTGGCCAGGCTGGTCTGGAATCCCTGACC
-0.1146145485667853 GCTTGTCTCAGCAGTTGGGAATTTGGACTTATCCTGAGTTGTAGCTCTATGCGGAATGTGTGGCAAAAGAGTAGAGAACATGGTGAGAATGCTTGAAATGAGGCTCCCAGGCTCAAGATGGAGCCCTGGGAAGCATCAAAATATAAAGAATGAATAGAAGAAGAGGAGAATGCAAAGGTAAATGAGAAAGAGAAGCCAGA
-0.06518641699365973 ACAAGAGTGAAACTCTGTCTCAAAAAAAAAAAAAAAAAAAGGTAAGATGCTGTGTGATTCCATTTTATGTAAAGTGTCCACAATAGGCAAATCCATAGAGACAGAGAGTAAATAATAAGTGCTTGCCTAAGGTTGGAGGGAGGAGAGAATGAAATTGACTACTAATGGGCATGGGGTTTCTTTAAGGGGTGATGGAAAAT
-0.1010995637553543 CAGGTTTGAAACAATTTTTTTGTAGAATCAGCAAAGGGACTTTTGGGAGCTCATTGAGGCCTCTAGTGAAAAAGCGAATATCCCCAGATAAAAACTAGAAAGAAGCTATCTGTGAAACTGCTTTGTAATATGTTGATTTATCTCACAGAGTTAAATTTTTCTTCTTATTCGCACGTTGGAAGCCCTCCTTTTGTAGAATC
-0.009084382333343051 GATATCGCCTGATTTCTCTTTATTGCTTATAGTAAAGTATAGGATAAGAAAAATAAATTAAATAAATTGTTAACCATAAGGAAACCAGAACTAAAAGATTTGGGAAAATCTCAGTTATCCATACTGCAAAAAAATGAAATATGTGTTTTAAAGAAAACTCCAAAGATGTGGCTGGATAACCACTCCCTAAGGTGGCTATC
-0.3100955177657871 TCACTCTGCCATAAGGGGATGTATAATAGGTTAAAATCTTTTCTGGATGGCCTCTGGTGAAAGCCTATTCAACAGCAGAGAGCTACAGGGGAGCTTGTGTGTTTTGGTTCTCAGGATCTTAAGCTTCACCTTTCTTGCTCTTCCTGCTGATGCTTCCATTCCAGCTGTTTTCTCCACTCCTCTTAAATGTCTCCCTCTAT
-0.1543429932793962 CAGATCATCTAATTTAGAAAAACAAACCTTGATTGACTACTAAGGTGAAGGGCTAAGGAAAAAAAGATTTTAATAATTCAGTAAGTATTAAAATGAACATCTACAAGCTATAACCTAGACAGGGGAAAGCAAGACTTTCTCCTTAAGCAGACTTGGCTAGAGATAAAGTTTTTAAAAGAAGGAAGAGGATAGCCTTATAT
-0.07704781867095055 CTCAGAATGACAGCCCCAAATTTAACCTCCTCTTTTCCTTCAAATAAATTGATATCTCAACTCAGCCTCCCTAACAAGTCATCTGCTTCATTGAAATGAAATTCCAGCCACACTGAGGAGAGCCACTAGACAGAATATGTCACTTGCTGCCTTTGTTTTCTTAGGCTAGAAAGGTCCATAACCTGAAGGATGGATTGCAT
-0.08593358127622684 TAAGGATTGAAATAAAATGGGAAAAATTTAAGTACTTGAACGTACATTTTTTGGCTCCAATAAGAACAGAAGCTGAAATGAAGCAAACTCTGCATAAATAGCTCCACAGCCATGGAGGCAGGTTTGATGACCTCTTACTGACATCTGCACCATGTGGTTTCTCTGTAAGAACTCCTGTAAATGGAGTTCCTCTAAATGAT
